digraph Tree {
node [shape=box, style="rounded", color="black", fontname=helvetica] ;
edge [fontname=helvetica] ;
0 [label="room_type_Entire home/apt <= 0.5\nmse = 7431.2\nsamples = 12458\nvalue = 130.4"] ;
1 [label="neighbourhood_group_cleansed_Manhattan <= 0.5\nmse = 2110.5\nsamples = 5972\nvalue = 78.7"] ;
0 -> 1 [labeldistance=2.5, labelangle=45, headlabel="True"] ;
2 [label="bedrooms <= 1.5\nmse = 1050.7\nsamples = 3998\nvalue = 67.1"] ;
1 -> 2 ;
3 [label="property_type_Boutique hotel <= 0.5\nmse = 860.7\nsamples = 3883\nvalue = 65.7"] ;
2 -> 3 ;
4 [label="accommodates <= 1.5\nmse = 795.9\nsamples = 3863\nvalue = 65.2"] ;
3 -> 4 ;
5 [label="room_type_Private room <= 0.5\nmse = 537.2\nsamples = 964\nvalue = 54.0"] ;
4 -> 5 ;
6 [label="host_listings_count <= 2.5\nmse = 234.3\nsamples = 121\nvalue = 34.1"] ;
5 -> 6 ;
7 [label="property_type_Loft <= 0.5\nmse = 601.7\nsamples = 30\nvalue = 45.3"] ;
6 -> 7 ;
8 [label="property_type_Condominium <= 0.5\nmse = 381.0\nsamples = 29\nvalue = 43.1"] ;
7 -> 8 ;
9 [label="maximum_nights <= 652.5\nmse = 367.5\nsamples = 27\nvalue = 46.1"] ;
8 -> 9 ;
10 [label="maximum_minimum_nights <= 5.0\nmse = 144.9\nsamples = 17\nvalue = 39.9"] ;
9 -> 10 ;
11 [label="id <= 27188717.0\nmse = 124.7\nsamples = 16\nvalue = 37.4"] ;
10 -> 11 ;
12 [label="bed_type_Real Bed <= 0.5\nmse = 43.7\nsamples = 6\nvalue = 28.8"] ;
11 -> 12 ;
13 [label="mse = 0.0\nsamples = 1\nvalue = 44.0"] ;
12 -> 13 ;
14 [label="maximum_nights_avg_ntm <= 9.5\nmse = 12.0\nsamples = 5\nvalue = 26.6"] ;
12 -> 14 ;
15 [label="mse = 0.0\nsamples = 1\nvalue = 30.0"] ;
14 -> 15 ;
16 [label="number_of_reviews <= 10.5\nmse = 5.5\nsamples = 4\nvalue = 24.0"] ;
14 -> 16 ;
17 [label="mse = 0.0\nsamples = 1\nvalue = 20.0"] ;
16 -> 17 ;
18 [label="maximum_nights <= 120.0\nmse = 0.2\nsamples = 3\nvalue = 25.3"] ;
16 -> 18 ;
19 [label="mse = 0.0\nsamples = 2\nvalue = 25.0"] ;
18 -> 19 ;
20 [label="mse = 0.0\nsamples = 1\nvalue = 26.0"] ;
18 -> 20 ;
21 [label="property_type_Bed and breakfast <= 0.5\nmse = 109.3\nsamples = 10\nvalue = 41.7"] ;
11 -> 21 ;
22 [label="number_of_reviews <= 11.5\nmse = 78.0\nsamples = 9\nvalue = 40.1"] ;
21 -> 22 ;
23 [label="review_scores_rating <= 70.0\nmse = 49.0\nsamples = 7\nvalue = 37.2"] ;
22 -> 23 ;
24 [label="mse = 0.0\nsamples = 1\nvalue = 20.0"] ;
23 -> 24 ;
25 [label="number_of_reviews <= 7.0\nmse = 24.2\nsamples = 6\nvalue = 38.7"] ;
23 -> 25 ;
26 [label="id <= 38744832.0\nmse = 5.9\nsamples = 5\nvalue = 40.1"] ;
25 -> 26 ;
27 [label="id <= 29436063.0\nmse = 2.6\nsamples = 4\nvalue = 39.1"] ;
26 -> 27 ;
28 [label="mse = 0.0\nsamples = 1\nvalue = 35.0"] ;
27 -> 28 ;
29 [label="hos2_is_superhos2 <= 1.5\nmse = 0.2\nsamples = 3\nvalue = 39.7"] ;
27 -> 29 ;
30 [label="mse = 0.0\nsamples = 2\nvalue = 40.0"] ;
29 -> 30 ;
31 [label="mse = 0.0\nsamples = 1\nvalue = 39.0"] ;
29 -> 31 ;
32 [label="mse = 0.0\nsamples = 1\nvalue = 44.0"] ;
26 -> 32 ;
33 [label="mse = 0.0\nsamples = 1\nvalue = 25.0"] ;
25 -> 33 ;
34 [label="number_of_reviews_ltm <= 8.5\nmse = 18.0\nsamples = 2\nvalue = 52.0"] ;
22 -> 34 ;
35 [label="mse = 0.0\nsamples = 1\nvalue = 46.0"] ;
34 -> 35 ;
36 [label="mse = 0.0\nsamples = 1\nvalue = 55.0"] ;
34 -> 36 ;
37 [label="mse = 0.0\nsamples = 1\nvalue = 65.0"] ;
21 -> 37 ;
38 [label="mse = 0.0\nsamples = 1\nvalue = 55.0"] ;
10 -> 38 ;
39 [label="number_of_reviews <= 8.5\nmse = 587.5\nsamples = 10\nvalue = 59.4"] ;
9 -> 39 ;
40 [label="number_of_reviews <= 4.0\nmse = 464.8\nsamples = 4\nvalue = 78.8"] ;
39 -> 40 ;
41 [label="hos2_is_superhos2 <= 1.5\nmse = 88.9\nsamples = 2\nvalue = 58.3"] ;
40 -> 41 ;
42 [label="mse = 0.0\nsamples = 1\nvalue = 45.0"] ;
41 -> 42 ;
43 [label="mse = 0.0\nsamples = 1\nvalue = 65.0"] ;
41 -> 43 ;
44 [label="id <= 32578108.0\nmse = 0.2\nsamples = 2\nvalue = 99.3"] ;
40 -> 44 ;
45 [label="mse = 0.0\nsamples = 1\nvalue = 100.0"] ;
44 -> 45 ;
46 [label="mse = 0.0\nsamples = 1\nvalue = 99.0"] ;
44 -> 46 ;
47 [label="id <= 20128467.0\nmse = 90.5\nsamples = 6\nvalue = 42.7"] ;
39 -> 47 ;
48 [label="id <= 7744674.0\nmse = 0.8\nsamples = 3\nvalue = 49.5"] ;
47 -> 48 ;
49 [label="mse = 0.0\nsamples = 1\nvalue = 48.0"] ;
48 -> 49 ;
50 [label="mse = 0.0\nsamples = 2\nvalue = 50.0"] ;
48 -> 50 ;
51 [label="minimum_minimum_nights <= 1.5\nmse = 66.9\nsamples = 3\nvalue = 33.7"] ;
47 -> 51 ;
52 [label="review_scores_rating <= 95.0\nmse = 4.0\nsamples = 2\nvalue = 28.0"] ;
51 -> 52 ;
53 [label="mse = 0.0\nsamples = 1\nvalue = 30.0"] ;
52 -> 53 ;
54 [label="mse = 0.0\nsamples = 1\nvalue = 26.0"] ;
52 -> 54 ;
55 [label="mse = 0.0\nsamples = 1\nvalue = 45.0"] ;
51 -> 55 ;
56 [label="neighbourhood_group_cleansed_Brooklyn <= 0.5\nmse = 9.0\nsamples = 2\nvalue = 23.0"] ;
8 -> 56 ;
57 [label="mse = 0.0\nsamples = 1\nvalue = 20.0"] ;
56 -> 57 ;
58 [label="mse = 0.0\nsamples = 1\nvalue = 26.0"] ;
56 -> 58 ;
59 [label="mse = 0.0\nsamples = 1\nvalue = 149.0"] ;
7 -> 59 ;
60 [label="number_of_reviews <= 4.5\nmse = 49.1\nsamples = 91\nvalue = 30.3"] ;
6 -> 60 ;
61 [label="minimum_nights_avg_ntm <= 6.0\nmse = 30.6\nsamples = 33\nvalue = 26.7"] ;
60 -> 61 ;
62 [label="review_scores_accuracy <= 9.5\nmse = 26.2\nsamples = 22\nvalue = 28.1"] ;
61 -> 62 ;
63 [label="review_scores_accuracy <= 6.5\nmse = 9.0\nsamples = 10\nvalue = 26.2"] ;
62 -> 63 ;
64 [label="maximum_nights_avg_ntm <= 712.5\nmse = 12.6\nsamples = 3\nvalue = 29.6"] ;
63 -> 64 ;
65 [label="maximum_minimum_nights <= 4.5\nmse = 3.0\nsamples = 2\nvalue = 28.0"] ;
64 -> 65 ;
66 [label="mse = 0.0\nsamples = 1\nvalue = 25.0"] ;
65 -> 66 ;
67 [label="mse = 0.0\nsamples = 1\nvalue = 29.0"] ;
65 -> 67 ;
68 [label="mse = 0.0\nsamples = 1\nvalue = 36.0"] ;
64 -> 68 ;
69 [label="review_scores_communication <= 9.5\nmse = 3.4\nsamples = 7\nvalue = 25.2"] ;
63 -> 69 ;
70 [label="review_scores_checkin <= 7.5\nmse = 0.2\nsamples = 2\nvalue = 29.5"] ;
69 -> 70 ;
71 [label="mse = 0.0\nsamples = 1\nvalue = 30.0"] ;
70 -> 71 ;
72 [label="mse = 0.0\nsamples = 1\nvalue = 29.0"] ;
70 -> 72 ;
73 [label="host_listings_count <= 6.0\nmse = 1.0\nsamples = 5\nvalue = 24.6"] ;
69 -> 73 ;
74 [label="mse = 0.0\nsamples = 1\nvalue = 23.0"] ;
73 -> 74 ;
75 [label="beds <= 0.5\nmse = 0.1\nsamples = 4\nvalue = 25.2"] ;
73 -> 75 ;
76 [label="mse = 0.0\nsamples = 1\nvalue = 26.0"] ;
75 -> 76 ;
77 [label="mse = 0.0\nsamples = 3\nvalue = 25.0"] ;
75 -> 77 ;
78 [label="minimum_nights_avg_ntm <= 2.5\nmse = 39.3\nsamples = 12\nvalue = 31.2"] ;
62 -> 78 ;
79 [label="beds <= 2.0\nmse = 29.9\nsamples = 10\nvalue = 29.6"] ;
78 -> 79 ;
80 [label="host_listings_count <= 10.0\nmse = 31.4\nsamples = 7\nvalue = 31.2"] ;
79 -> 80 ;
81 [label="host_listings_count <= 7.5\nmse = 28.5\nsamples = 4\nvalue = 35.0"] ;
80 -> 81 ;
82 [label="beds <= 0.5\nmse = 2.0\nsamples = 3\nvalue = 32.0"] ;
81 -> 82 ;
83 [label="mse = 0.0\nsamples = 1\nvalue = 30.0"] ;
82 -> 83 ;
84 [label="mse = 0.0\nsamples = 2\nvalue = 33.0"] ;
82 -> 84 ;
85 [label="mse = 0.0\nsamples = 1\nvalue = 44.0"] ;
81 -> 85 ;
86 [label="review_scores_communication <= 9.5\nmse = 6.2\nsamples = 3\nvalue = 27.5"] ;
80 -> 86 ;
87 [label="mse = 0.0\nsamples = 1\nvalue = 25.0"] ;
86 -> 87 ;
88 [label="mse = 0.0\nsamples = 2\nvalue = 30.0"] ;
86 -> 88 ;
89 [label="beds <= 4.5\nmse = 0.2\nsamples = 3\nvalue = 25.3"] ;
79 -> 89 ;
90 [label="mse = 0.0\nsamples = 1\nvalue = 26.0"] ;
89 -> 90 ;
91 [label="mse = 0.0\nsamples = 2\nvalue = 25.0"] ;
89 -> 91 ;
92 [label="mse = 0.0\nsamples = 2\nvalue = 40.0"] ;
78 -> 92 ;
93 [label="minimum_nights <= 8.0\nmse = 26.2\nsamples = 11\nvalue = 23.5"] ;
61 -> 93 ;
94 [label="beds <= 3.5\nmse = 2.2\nsamples = 6\nvalue = 18.5"] ;
93 -> 94 ;
95 [label="mse = 0.0\nsamples = 2\nvalue = 17.0"] ;
94 -> 95 ;
96 [label="review_scores_communication <= 8.5\nmse = 1.7\nsamples = 4\nvalue = 19.2"] ;
94 -> 96 ;
97 [label="mse = 0.0\nsamples = 1\nvalue = 17.0"] ;
96 -> 97 ;
98 [label="mse = 0.0\nsamples = 3\nvalue = 20.0"] ;
96 -> 98 ;
99 [label="id <= 33061230.0\nmse = 14.8\nsamples = 5\nvalue = 26.8"] ;
93 -> 99 ;
100 [label="mse = 0.0\nsamples = 2\nvalue = 20.0"] ;
99 -> 100 ;
101 [label="review_scores_value <= 8.5\nmse = 2.2\nsamples = 3\nvalue = 28.7"] ;
99 -> 101 ;
102 [label="mse = 0.0\nsamples = 2\nvalue = 30.0"] ;
101 -> 102 ;
103 [label="mse = 0.0\nsamples = 1\nvalue = 27.0"] ;
101 -> 103 ;
104 [label="review_scores_location <= 9.5\nmse = 48.3\nsamples = 58\nvalue = 32.3"] ;
60 -> 104 ;
105 [label="host_listings_count <= 27.5\nmse = 23.4\nsamples = 36\nvalue = 30.6"] ;
104 -> 105 ;
106 [label="number_of_reviews_ltm <= 6.5\nmse = 20.3\nsamples = 32\nvalue = 29.9"] ;
105 -> 106 ;
107 [label="beds <= 6.5\nmse = 33.8\nsamples = 4\nvalue = 36.4"] ;
106 -> 107 ;
108 [label="id <= 14964675.0\nmse = 1.7\nsamples = 3\nvalue = 39.2"] ;
107 -> 108 ;
109 [label="mse = 0.0\nsamples = 1\nvalue = 37.0"] ;
108 -> 109 ;
110 [label="mse = 0.0\nsamples = 2\nvalue = 40.0"] ;
108 -> 110 ;
111 [label="mse = 0.0\nsamples = 1\nvalue = 25.0"] ;
107 -> 111 ;
112 [label="neighbourhood_group_cleansed_Queens <= 0.5\nmse = 13.7\nsamples = 28\nvalue = 29.2"] ;
106 -> 112 ;
113 [label="minimum_nights_avg_ntm <= 4.0\nmse = 4.9\nsamples = 21\nvalue = 28.0"] ;
112 -> 113 ;
114 [label="maximum_nights <= 45.0\nmse = 2.6\nsamples = 19\nvalue = 28.5"] ;
113 -> 114 ;
115 [label="mse = 0.0\nsamples = 1\nvalue = 25.0"] ;
114 -> 115 ;
116 [label="number_of_reviews_ltm <= 27.0\nmse = 1.9\nsamples = 18\nvalue = 28.7"] ;
114 -> 116 ;
117 [label="host_listings_count <= 15.5\nmse = 1.3\nsamples = 11\nvalue = 28.0"] ;
116 -> 117 ;
118 [label="beds <= 3.0\nmse = 0.3\nsamples = 9\nvalue = 28.3"] ;
117 -> 118 ;
119 [label="minimum_maximum_nights <= 80.0\nmse = 0.1\nsamples = 8\nvalue = 28.1"] ;
118 -> 119 ;
120 [label="mse = 0.0\nsamples = 1\nvalue = 29.0"] ;
119 -> 120 ;
121 [label="mse = 0.0\nsamples = 7\nvalue = 28.0"] ;
119 -> 121 ;
122 [label="mse = 0.0\nsamples = 1\nvalue = 30.0"] ;
118 -> 122 ;
123 [label="number_of_reviews <= 12.5\nmse = 4.0\nsamples = 2\nvalue = 26.0"] ;
117 -> 123 ;
124 [label="mse = 0.0\nsamples = 1\nvalue = 28.0"] ;
123 -> 124 ;
125 [label="mse = 0.0\nsamples = 1\nvalue = 24.0"] ;
123 -> 125 ;
126 [label="review_scores_cleanliness <= 8.5\nmse = 1.1\nsamples = 7\nvalue = 29.7"] ;
116 -> 126 ;
127 [label="number_of_reviews <= 92.0\nmse = 0.2\nsamples = 3\nvalue = 28.6"] ;
126 -> 127 ;
128 [label="mse = 0.0\nsamples = 2\nvalue = 28.0"] ;
127 -> 128 ;
129 [label="mse = 0.0\nsamples = 1\nvalue = 29.0"] ;
127 -> 129 ;
130 [label="number_of_reviews_ltm <= 32.5\nmse = 0.2\nsamples = 4\nvalue = 30.4"] ;
126 -> 130 ;
131 [label="mse = 0.0\nsamples = 3\nvalue = 30.0"] ;
130 -> 131 ;
132 [label="mse = 0.0\nsamples = 1\nvalue = 31.0"] ;
130 -> 132 ;
133 [label="minimum_minimum_nights <= 6.0\nmse = 5.6\nsamples = 2\nvalue = 23.3"] ;
113 -> 133 ;
134 [label="mse = 0.0\nsamples = 1\nvalue = 25.0"] ;
133 -> 134 ;
135 [label="mse = 0.0\nsamples = 1\nvalue = 20.0"] ;
133 -> 135 ;
136 [label="number_of_reviews_ltm <= 17.0\nmse = 23.9\nsamples = 7\nvalue = 32.4"] ;
112 -> 136 ;
137 [label="maximum_maximum_nights <= 14.5\nmse = 8.4\nsamples = 5\nvalue = 30.0"] ;
136 -> 137 ;
138 [label="mse = 0.0\nsamples = 1\nvalue = 37.0"] ;
137 -> 138 ;
139 [label="minimum_maximum_nights <= 17.5\nmse = 2.6\nsamples = 4\nvalue = 29.1"] ;
137 -> 139 ;
140 [label="mse = 0.0\nsamples = 1\nvalue = 25.0"] ;
139 -> 140 ;
141 [label="beds <= 2.5\nmse = 0.2\nsamples = 3\nvalue = 29.7"] ;
139 -> 141 ;
142 [label="mse = 0.0\nsamples = 2\nvalue = 30.0"] ;
141 -> 142 ;
143 [label="mse = 0.0\nsamples = 1\nvalue = 29.0"] ;
141 -> 143 ;
144 [label="bathrooms <= 1.2\nmse = 0.2\nsamples = 2\nvalue = 39.7"] ;
136 -> 144 ;
145 [label="mse = 0.0\nsamples = 1\nvalue = 39.0"] ;
144 -> 145 ;
146 [label="mse = 0.0\nsamples = 1\nvalue = 40.0"] ;
144 -> 146 ;
147 [label="review_scores_checkin <= 9.5\nmse = 1.0\nsamples = 4\nvalue = 37.6"] ;
105 -> 147 ;
148 [label="minimum_maximum_nights <= 567.5\nmse = 0.2\nsamples = 2\nvalue = 38.3"] ;
147 -> 148 ;
149 [label="mse = 0.0\nsamples = 1\nvalue = 38.0"] ;
148 -> 149 ;
150 [label="mse = 0.0\nsamples = 1\nvalue = 39.0"] ;
148 -> 150 ;
151 [label="review_scores_cleanliness <= 8.5\nmse = 0.2\nsamples = 2\nvalue = 36.5"] ;
147 -> 151 ;
152 [label="mse = 0.0\nsamples = 1\nvalue = 36.0"] ;
151 -> 152 ;
153 [label="mse = 0.0\nsamples = 1\nvalue = 37.0"] ;
151 -> 153 ;
154 [label="minimum_minimum_nights <= 1.5\nmse = 77.1\nsamples = 22\nvalue = 35.2"] ;
104 -> 154 ;
155 [label="host_listings_count <= 6.0\nmse = 59.6\nsamples = 14\nvalue = 38.9"] ;
154 -> 155 ;
156 [label="review_scores_rating <= 94.0\nmse = 10.2\nsamples = 4\nvalue = 47.3"] ;
155 -> 156 ;
157 [label="mse = 0.0\nsamples = 1\nvalue = 43.0"] ;
156 -> 157 ;
158 [label="review_scores_rating <= 96.5\nmse = 4.0\nsamples = 3\nvalue = 49.0"] ;
156 -> 158 ;
159 [label="mse = 0.0\nsamples = 2\nvalue = 50.0"] ;
158 -> 159 ;
160 [label="mse = 0.0\nsamples = 1\nvalue = 45.0"] ;
158 -> 160 ;
161 [label="review_scores_cleanliness <= 9.5\nmse = 30.9\nsamples = 10\nvalue = 34.6"] ;
155 -> 161 ;
162 [label="beds <= 0.5\nmse = 2.2\nsamples = 5\nvalue = 38.2"] ;
161 -> 162 ;
163 [label="mse = 0.0\nsamples = 1\nvalue = 35.0"] ;
162 -> 163 ;
164 [label="property_type_House <= 0.5\nmse = 0.8\nsamples = 4\nvalue = 38.7"] ;
162 -> 164 ;
165 [label="minimum_maximum_nights <= 745.0\nmse = 0.2\nsamples = 3\nvalue = 39.7"] ;
164 -> 165 ;
166 [label="mse = 0.0\nsamples = 2\nvalue = 40.0"] ;
165 -> 166 ;
167 [label="mse = 0.0\nsamples = 1\nvalue = 39.0"] ;
165 -> 167 ;
168 [label="mse = 0.0\nsamples = 1\nvalue = 38.0"] ;
164 -> 168 ;
169 [label="minimum_maximum_nights <= 22.0\nmse = 28.8\nsamples = 5\nvalue = 29.8"] ;
161 -> 169 ;
170 [label="mse = 0.0\nsamples = 1\nvalue = 37.0"] ;
169 -> 170 ;
171 [label="beds <= 0.5\nmse = 4.7\nsamples = 4\nvalue = 26.2"] ;
169 -> 171 ;
172 [label="mse = 0.0\nsamples = 1\nvalue = 30.0"] ;
171 -> 172 ;
173 [label="mse = 0.0\nsamples = 3\nvalue = 25.0"] ;
171 -> 173 ;
174 [label="id <= 31015357.0\nmse = 41.7\nsamples = 8\nvalue = 28.7"] ;
154 -> 174 ;
175 [label="review_scores_value <= 9.5\nmse = 2.6\nsamples = 3\nvalue = 35.8"] ;
174 -> 175 ;
176 [label="mse = 0.0\nsamples = 1\nvalue = 39.0"] ;
175 -> 176 ;
177 [label="mse = 0.0\nsamples = 2\nvalue = 35.0"] ;
175 -> 177 ;
178 [label="id <= 36761996.0\nmse = 7.4\nsamples = 5\nvalue = 23.6"] ;
174 -> 178 ;
179 [label="review_scores_rating <= 97.5\nmse = 0.2\nsamples = 4\nvalue = 24.7"] ;
178 -> 179 ;
180 [label="mse = 0.0\nsamples = 1\nvalue = 24.0"] ;
179 -> 180 ;
181 [label="mse = 0.0\nsamples = 3\nvalue = 25.0"] ;
179 -> 181 ;
182 [label="mse = 0.0\nsamples = 1\nvalue = 17.0"] ;
178 -> 182 ;
183 [label="host_listings_count <= 3.5\nmse = 517.0\nsamples = 843\nvalue = 56.7"] ;
5 -> 183 ;
184 [label="number_of_reviews_ltm <= 19.5\nmse = 574.9\nsamples = 619\nvalue = 59.7"] ;
183 -> 184 ;
185 [label="maximum_nights_avg_ntm <= 9.5\nmse = 626.7\nsamples = 529\nvalue = 61.3"] ;
184 -> 185 ;
186 [label="neighbourhood_group_cleansed_Queens <= 0.5\nmse = 979.0\nsamples = 51\nvalue = 74.9"] ;
185 -> 186 ;
187 [label="review_scores_value <= 9.5\nmse = 931.3\nsamples = 39\nvalue = 80.8"] ;
186 -> 187 ;
188 [label="id <= 33387026.0\nmse = 1399.1\nsamples = 12\nvalue = 102.2"] ;
187 -> 188 ;
189 [label="number_of_reviews <= 8.0\nmse = 1046.8\nsamples = 9\nvalue = 115.7"] ;
188 -> 189 ;
190 [label="review_scores_cleanliness <= 9.5\nmse = 626.8\nsamples = 6\nvalue = 130.7"] ;
189 -> 190 ;
191 [label="minimum_maximum_nights <= 5.0\nmse = 246.6\nsamples = 3\nvalue = 151.4"] ;
190 -> 191 ;
192 [label="mse = 0.0\nsamples = 1\nvalue = 120.0"] ;
191 -> 192 ;
193 [label="minimum_nights_avg_ntm <= 1.5\nmse = 0.2\nsamples = 2\nvalue = 159.2"] ;
191 -> 193 ;
194 [label="mse = 0.0\nsamples = 1\nvalue = 159.0"] ;
193 -> 194 ;
195 [label="mse = 0.0\nsamples = 1\nvalue = 160.0"] ;
193 -> 195 ;
196 [label="host_listings_count <= 1.0\nmse = 150.0\nsamples = 3\nvalue = 110.0"] ;
190 -> 196 ;
197 [label="mse = 0.0\nsamples = 1\nvalue = 125.0"] ;
196 -> 197 ;
198 [label="mse = 0.0\nsamples = 2\nvalue = 100.0"] ;
196 -> 198 ;
199 [label="bed_type_Real Bed <= 0.5\nmse = 131.7\nsamples = 3\nvalue = 78.2"] ;
189 -> 199 ;
200 [label="mse = 0.0\nsamples = 1\nvalue = 59.0"] ;
199 -> 200 ;
201 [label="number_of_reviews <= 23.0\nmse = 10.9\nsamples = 2\nvalue = 84.7"] ;
199 -> 201 ;
202 [label="mse = 0.0\nsamples = 1\nvalue = 87.0"] ;
201 -> 202 ;
203 [label="mse = 0.0\nsamples = 1\nvalue = 80.0"] ;
201 -> 203 ;
204 [label="host_listings_count <= 2.0\nmse = 445.4\nsamples = 3\nvalue = 64.4"] ;
188 -> 204 ;
205 [label="number_of_reviews_ltm <= 10.5\nmse = 14.2\nsamples = 2\nvalue = 47.3"] ;
204 -> 205 ;
206 [label="mse = 0.0\nsamples = 1\nvalue = 50.0"] ;
205 -> 206 ;
207 [label="mse = 0.0\nsamples = 1\nvalue = 42.0"] ;
205 -> 207 ;
208 [label="mse = 0.0\nsamples = 1\nvalue = 90.0"] ;
204 -> 208 ;
209 [label="review_scores_cleanliness <= 8.5\nmse = 459.2\nsamples = 27\nvalue = 71.8"] ;
187 -> 209 ;
210 [label="number_of_reviews <= 3.0\nmse = 362.2\nsamples = 3\nvalue = 106.2"] ;
209 -> 210 ;
211 [label="mse = 0.0\nsamples = 1\nvalue = 83.0"] ;
210 -> 211 ;
212 [label="minimum_nights_avg_ntm <= 1.5\nmse = 5.6\nsamples = 2\nvalue = 121.7"] ;
210 -> 212 ;
213 [label="mse = 0.0\nsamples = 1\nvalue = 125.0"] ;
212 -> 213 ;
214 [label="mse = 0.0\nsamples = 1\nvalue = 120.0"] ;
212 -> 214 ;
215 [label="maximum_minimum_nights <= 1.5\nmse = 304.9\nsamples = 24\nvalue = 67.5"] ;
209 -> 215 ;
216 [label="review_scores_rating <= 99.0\nmse = 251.4\nsamples = 11\nvalue = 78.0"] ;
215 -> 216 ;
217 [label="number_of_reviews_ltm <= 10.0\nmse = 24.7\nsamples = 3\nvalue = 96.9"] ;
216 -> 217 ;
218 [label="mse = 0.0\nsamples = 2\nvalue = 100.0"] ;
217 -> 218 ;
219 [label="mse = 0.0\nsamples = 1\nvalue = 89.0"] ;
217 -> 219 ;
220 [label="id <= 31348801.0\nmse = 80.5\nsamples = 8\nvalue = 67.9"] ;
216 -> 220 ;
221 [label="number_of_reviews_ltm <= 1.5\nmse = 13.9\nsamples = 4\nvalue = 59.3"] ;
220 -> 221 ;
222 [label="mse = 0.0\nsamples = 1\nvalue = 55.0"] ;
221 -> 222 ;
223 [label="id <= 24170283.0\nmse = 6.8\nsamples = 3\nvalue = 61.5"] ;
221 -> 223 ;
224 [label="mse = 0.0\nsamples = 2\nvalue = 60.0"] ;
223 -> 224 ;
225 [label="mse = 0.0\nsamples = 1\nvalue = 66.0"] ;
223 -> 225 ;
226 [label="maximum_nights_avg_ntm <= 7.5\nmse = 20.2\nsamples = 4\nvalue = 75.3"] ;
220 -> 226 ;
227 [label="maximum_nights_avg_ntm <= 6.0\nmse = 6.8\nsamples = 3\nvalue = 76.8"] ;
226 -> 227 ;
228 [label="mse = 0.0\nsamples = 1\nvalue = 75.0"] ;
227 -> 228 ;
229 [label="property_type_House <= 0.5\nmse = 0.2\nsamples = 2\nvalue = 80.5"] ;
227 -> 229 ;
230 [label="mse = 0.0\nsamples = 1\nvalue = 80.0"] ;
229 -> 230 ;
231 [label="mse = 0.0\nsamples = 1\nvalue = 81.0"] ;
229 -> 231 ;
232 [label="mse = 0.0\nsamples = 1\nvalue = 66.0"] ;
226 -> 232 ;
233 [label="review_scores_checkin <= 9.5\nmse = 135.7\nsamples = 13\nvalue = 57.0"] ;
215 -> 233 ;
234 [label="mse = 0.0\nsamples = 1\nvalue = 30.0"] ;
233 -> 234 ;
235 [label="minimum_minimum_nights <= 5.5\nmse = 102.7\nsamples = 12\nvalue = 58.4"] ;
233 -> 235 ;
236 [label="id <= 8688403.5\nmse = 61.2\nsamples = 11\nvalue = 59.9"] ;
235 -> 236 ;
237 [label="mse = 0.0\nsamples = 1\nvalue = 42.0"] ;
236 -> 237 ;
238 [label="maximum_minimum_nights <= 3.5\nmse = 44.7\nsamples = 10\nvalue = 61.0"] ;
236 -> 238 ;
239 [label="review_scores_location <= 8.5\nmse = 39.5\nsamples = 9\nvalue = 61.7"] ;
238 -> 239 ;
240 [label="mse = 0.0\nsamples = 1\nvalue = 55.0"] ;
239 -> 240 ;
241 [label="host_listings_count <= 0.5\nmse = 37.8\nsamples = 8\nvalue = 62.6"] ;
239 -> 241 ;
242 [label="mse = 0.0\nsamples = 1\nvalue = 70.0"] ;
241 -> 242 ;
243 [label="number_of_reviews_ltm <= 3.0\nmse = 29.3\nsamples = 7\nvalue = 60.6"] ;
241 -> 243 ;
244 [label="number_of_reviews <= 3.5\nmse = 11.6\nsamples = 3\nvalue = 55.3"] ;
243 -> 244 ;
245 [label="mse = 0.0\nsamples = 1\nvalue = 60.0"] ;
244 -> 245 ;
246 [label="beds <= 0.5\nmse = 1.0\nsamples = 2\nvalue = 53.0"] ;
244 -> 246 ;
247 [label="mse = 0.0\nsamples = 1\nvalue = 52.0"] ;
246 -> 247 ;
248 [label="mse = 0.0\nsamples = 1\nvalue = 54.0"] ;
246 -> 248 ;
249 [label="hos2_is_superhos2 <= 1.5\nmse = 21.5\nsamples = 4\nvalue = 62.6"] ;
243 -> 249 ;
250 [label="id <= 34117472.0\nmse = 4.0\nsamples = 3\nvalue = 66.0"] ;
249 -> 250 ;
251 [label="mse = 0.0\nsamples = 2\nvalue = 65.0"] ;
250 -> 251 ;
252 [label="mse = 0.0\nsamples = 1\nvalue = 70.0"] ;
250 -> 252 ;
253 [label="mse = 0.0\nsamples = 1\nvalue = 57.0"] ;
249 -> 253 ;
254 [label="mse = 0.0\nsamples = 1\nvalue = 50.0"] ;
238 -> 254 ;
255 [label="mse = 0.0\nsamples = 1\nvalue = 30.0"] ;
235 -> 255 ;
256 [label="number_of_reviews <= 3.5\nmse = 475.9\nsamples = 12\nvalue = 51.4"] ;
186 -> 256 ;
257 [label="maximum_nights <= 5.5\nmse = 444.5\nsamples = 7\nvalue = 61.9"] ;
256 -> 257 ;
258 [label="id <= 36012829.0\nmse = 870.2\nsamples = 2\nvalue = 89.5"] ;
257 -> 258 ;
259 [label="mse = 0.0\nsamples = 1\nvalue = 60.0"] ;
258 -> 259 ;
260 [label="mse = 0.0\nsamples = 1\nvalue = 119.0"] ;
258 -> 260 ;
261 [label="id <= 30285006.0\nmse = 100.0\nsamples = 5\nvalue = 55.0"] ;
257 -> 261 ;
262 [label="review_scores_cleanliness <= 8.5\nmse = 22.2\nsamples = 2\nvalue = 66.7"] ;
261 -> 262 ;
263 [label="mse = 0.0\nsamples = 1\nvalue = 70.0"] ;
262 -> 263 ;
264 [label="mse = 0.0\nsamples = 1\nvalue = 60.0"] ;
262 -> 264 ;
265 [label="review_scores_communication <= 9.5\nmse = 16.0\nsamples = 3\nvalue = 48.0"] ;
261 -> 265 ;
266 [label="mse = 0.0\nsamples = 2\nvalue = 50.0"] ;
265 -> 266 ;
267 [label="mse = 0.0\nsamples = 1\nvalue = 40.0"] ;
265 -> 267 ;
268 [label="number_of_reviews <= 5.5\nmse = 35.8\nsamples = 5\nvalue = 33.8"] ;
256 -> 268 ;
269 [label="mse = 0.0\nsamples = 1\nvalue = 26.0"] ;
268 -> 269 ;
270 [label="host_listings_count <= 0.5\nmse = 7.7\nsamples = 4\nvalue = 37.8"] ;
268 -> 270 ;
271 [label="mse = 0.0\nsamples = 2\nvalue = 35.0"] ;
270 -> 271 ;
272 [label="minimum_nights_avg_ntm <= 2.5\nmse = 0.2\nsamples = 2\nvalue = 40.5"] ;
270 -> 272 ;
273 [label="mse = 0.0\nsamples = 1\nvalue = 41.0"] ;
272 -> 273 ;
274 [label="mse = 0.0\nsamples = 1\nvalue = 40.0"] ;
272 -> 274 ;
275 [label="review_scores_value <= 9.5\nmse = 569.9\nsamples = 478\nvalue = 59.9"] ;
185 -> 275 ;
276 [label="number_of_reviews_ltm <= 18.5\nmse = 774.8\nsamples = 169\nvalue = 64.7"] ;
275 -> 276 ;
277 [label="review_scores_rating <= 96.5\nmse = 687.7\nsamples = 166\nvalue = 63.5"] ;
276 -> 277 ;
278 [label="host_listings_count <= 0.5\nmse = 410.5\nsamples = 129\nvalue = 59.9"] ;
277 -> 278 ;
279 [label="review_scores_location <= 7.0\nmse = 268.3\nsamples = 12\nvalue = 73.8"] ;
278 -> 279 ;
280 [label="review_scores_communication <= 4.0\nmse = 43.6\nsamples = 2\nvalue = 45.3"] ;
279 -> 280 ;
281 [label="mse = 0.0\nsamples = 1\nvalue = 36.0"] ;
280 -> 281 ;
282 [label="mse = 0.0\nsamples = 1\nvalue = 50.0"] ;
280 -> 282 ;
283 [label="hos2_is_superhos2 <= 1.5\nmse = 178.4\nsamples = 10\nvalue = 77.5"] ;
279 -> 283 ;
284 [label="id <= 39318692.0\nmse = 116.7\nsamples = 9\nvalue = 80.1"] ;
283 -> 284 ;
285 [label="review_scores_cleanliness <= 8.5\nmse = 57.8\nsamples = 8\nvalue = 81.8"] ;
284 -> 285 ;
286 [label="review_scores_cleanliness <= 7.0\nmse = 26.3\nsamples = 4\nvalue = 73.0"] ;
285 -> 286 ;
287 [label="mse = 0.0\nsamples = 1\nvalue = 79.0"] ;
286 -> 287 ;
288 [label="review_scores_communication <= 9.0\nmse = 12.5\nsamples = 3\nvalue = 70.0"] ;
286 -> 288 ;
289 [label="review_scores_checkin <= 9.0\nmse = 5.6\nsamples = 2\nvalue = 68.3"] ;
288 -> 289 ;
290 [label="mse = 0.0\nsamples = 1\nvalue = 70.0"] ;
289 -> 290 ;
291 [label="mse = 0.0\nsamples = 1\nvalue = 65.0"] ;
289 -> 291 ;
292 [label="mse = 0.0\nsamples = 1\nvalue = 75.0"] ;
288 -> 292 ;
293 [label="number_of_reviews <= 19.0\nmse = 23.4\nsamples = 4\nvalue = 85.6"] ;
285 -> 293 ;
294 [label="review_scores_rating <= 87.0\nmse = 5.2\nsamples = 3\nvalue = 87.4"] ;
293 -> 294 ;
295 [label="mse = 0.0\nsamples = 1\nvalue = 90.0"] ;
294 -> 295 ;
296 [label="review_scores_cleanliness <= 9.5\nmse = 0.8\nsamples = 2\nvalue = 85.6"] ;
294 -> 296 ;
297 [label="mse = 0.0\nsamples = 1\nvalue = 85.0"] ;
296 -> 297 ;
298 [label="mse = 0.0\nsamples = 1\nvalue = 87.0"] ;
296 -> 298 ;
299 [label="mse = 0.0\nsamples = 1\nvalue = 75.0"] ;
293 -> 299 ;
300 [label="mse = 0.0\nsamples = 1\nvalue = 45.0"] ;
284 -> 300 ;
301 [label="mse = 0.0\nsamples = 1\nvalue = 50.0"] ;
283 -> 301 ;
302 [label="review_scores_rating <= 90.5\nmse = 400.2\nsamples = 117\nvalue = 58.0"] ;
278 -> 302 ;
303 [label="number_of_reviews_ltm <= 7.5\nmse = 203.2\nsamples = 55\nvalue = 52.2"] ;
302 -> 303 ;
304 [label="id <= 38052950.0\nmse = 195.5\nsamples = 43\nvalue = 55.1"] ;
303 -> 304 ;
305 [label="review_scores_checkin <= 8.5\nmse = 167.5\nsamples = 41\nvalue = 56.6"] ;
304 -> 305 ;
306 [label="hos2_is_superhos2 <= 1.5\nmse = 67.7\nsamples = 5\nvalue = 46.1"] ;
305 -> 306 ;
307 [label="number_of_reviews <= 7.0\nmse = 63.6\nsamples = 4\nvalue = 49.7"] ;
306 -> 307 ;
308 [label="maximum_maximum_nights <= 32.5\nmse = 9.6\nsamples = 3\nvalue = 53.0"] ;
307 -> 308 ;
309 [label="mse = 0.0\nsamples = 1\nvalue = 59.0"] ;
308 -> 309 ;
310 [label="maximum_minimum_nights <= 5.0\nmse = 0.8\nsamples = 2\nvalue = 51.5"] ;
308 -> 310 ;
311 [label="mse = 0.0\nsamples = 1\nvalue = 50.0"] ;
310 -> 311 ;
312 [label="mse = 0.0\nsamples = 1\nvalue = 52.0"] ;
310 -> 312 ;
313 [label="mse = 0.0\nsamples = 1\nvalue = 33.0"] ;
307 -> 313 ;
314 [label="mse = 0.0\nsamples = 1\nvalue = 39.0"] ;
306 -> 314 ;
315 [label="neighbourhood_group_cleansed_Brooklyn <= 0.5\nmse = 163.6\nsamples = 36\nvalue = 58.1"] ;
305 -> 315 ;
316 [label="review_scores_cleanliness <= 5.5\nmse = 160.7\nsamples = 17\nvalue = 53.8"] ;
315 -> 316 ;
317 [label="mse = 0.0\nsamples = 1\nvalue = 89.0"] ;
316 -> 317 ;
318 [label="id <= 9957314.0\nmse = 120.5\nsamples = 16\nvalue = 52.5"] ;
316 -> 318 ;
319 [label="id <= 4688648.5\nmse = 98.0\nsamples = 4\nvalue = 61.0"] ;
318 -> 319 ;
320 [label="review_scores_value <= 8.5\nmse = 9.0\nsamples = 2\nvalue = 52.0"] ;
319 -> 320 ;
321 [label="mse = 0.0\nsamples = 1\nvalue = 49.0"] ;
320 -> 321 ;
322 [label="mse = 0.0\nsamples = 1\nvalue = 55.0"] ;
320 -> 322 ;
323 [label="id <= 7495765.0\nmse = 25.0\nsamples = 2\nvalue = 70.0"] ;
319 -> 323 ;
324 [label="mse = 0.0\nsamples = 1\nvalue = 75.0"] ;
323 -> 324 ;
325 [label="mse = 0.0\nsamples = 1\nvalue = 65.0"] ;
323 -> 325 ;
326 [label="id <= 24377370.0\nmse = 89.0\nsamples = 12\nvalue = 49.1"] ;
318 -> 326 ;
327 [label="id <= 22445384.0\nmse = 64.8\nsamples = 7\nvalue = 41.5"] ;
326 -> 327 ;
328 [label="id <= 13490730.5\nmse = 32.6\nsamples = 4\nvalue = 46.2"] ;
327 -> 328 ;
329 [label="mse = 0.0\nsamples = 1\nvalue = 35.0"] ;
328 -> 329 ;
330 [label="id <= 18455564.0\nmse = 1.5\nsamples = 3\nvalue = 49.0"] ;
328 -> 330 ;
331 [label="mse = 0.0\nsamples = 1\nvalue = 47.0"] ;
330 -> 331 ;
332 [label="property_type_Apartment <= 0.5\nmse = 0.2\nsamples = 2\nvalue = 49.7"] ;
330 -> 332 ;
333 [label="mse = 0.0\nsamples = 1\nvalue = 50.0"] ;
332 -> 333 ;
334 [label="mse = 0.0\nsamples = 1\nvalue = 49.0"] ;
332 -> 334 ;
335 [label="minimum_nights_avg_ntm <= 17.5\nmse = 20.2\nsamples = 3\nvalue = 33.7"] ;
327 -> 335 ;
336 [label="minimum_nights_avg_ntm <= 4.0\nmse = 0.2\nsamples = 2\nvalue = 30.5"] ;
335 -> 336 ;
337 [label="mse = 0.0\nsamples = 1\nvalue = 31.0"] ;
336 -> 337 ;
338 [label="mse = 0.0\nsamples = 1\nvalue = 30.0"] ;
336 -> 338 ;
339 [label="mse = 0.0\nsamples = 1\nvalue = 40.0"] ;
335 -> 339 ;
340 [label="maximum_minimum_nights <= 2.5\nmse = 41.0\nsamples = 5\nvalue = 54.2"] ;
326 -> 340 ;
341 [label="review_scores_rating <= 81.5\nmse = 15.4\nsamples = 3\nvalue = 51.1"] ;
340 -> 341 ;
342 [label="mse = 0.0\nsamples = 1\nvalue = 55.0"] ;
341 -> 342 ;
343 [label="number_of_reviews_ltm <= 5.0\nmse = 6.0\nsamples = 2\nvalue = 48.0"] ;
341 -> 343 ;
344 [label="mse = 0.0\nsamples = 1\nvalue = 50.0"] ;
343 -> 344 ;
345 [label="mse = 0.0\nsamples = 1\nvalue = 45.0"] ;
343 -> 345 ;
346 [label="number_of_reviews <= 5.0\nmse = 5.6\nsamples = 2\nvalue = 63.3"] ;
340 -> 346 ;
347 [label="mse = 0.0\nsamples = 1\nvalue = 65.0"] ;
346 -> 347 ;
348 [label="mse = 0.0\nsamples = 1\nvalue = 60.0"] ;
346 -> 348 ;
349 [label="number_of_reviews_ltm <= 6.0\nmse = 131.7\nsamples = 19\nvalue = 62.2"] ;
315 -> 349 ;
350 [label="review_scores_cleanliness <= 6.5\nmse = 98.0\nsamples = 18\nvalue = 63.3"] ;
349 -> 350 ;
351 [label="id <= 30225062.0\nmse = 25.0\nsamples = 2\nvalue = 80.0"] ;
350 -> 351 ;
352 [label="mse = 0.0\nsamples = 1\nvalue = 85.0"] ;
351 -> 352 ;
353 [label="mse = 0.0\nsamples = 1\nvalue = 75.0"] ;
351 -> 353 ;
354 [label="review_scores_rating <= 83.5\nmse = 82.0\nsamples = 16\nvalue = 62.1"] ;
350 -> 354 ;
355 [label="review_scores_accuracy <= 8.5\nmse = 88.9\nsamples = 5\nvalue = 55.0"] ;
354 -> 355 ;
356 [label="review_scores_value <= 7.5\nmse = 6.2\nsamples = 2\nvalue = 72.5"] ;
355 -> 356 ;
357 [label="mse = 0.0\nsamples = 1\nvalue = 70.0"] ;
356 -> 357 ;
358 [label="mse = 0.0\nsamples = 1\nvalue = 75.0"] ;
356 -> 358 ;
359 [label="mse = 0.0\nsamples = 3\nvalue = 50.0"] ;
355 -> 359 ;
360 [label="host_listings_count <= 1.5\nmse = 43.1\nsamples = 11\nvalue = 65.5"] ;
354 -> 360 ;
361 [label="number_of_reviews <= 9.5\nmse = 13.8\nsamples = 6\nvalue = 71.0"] ;
360 -> 361 ;
362 [label="review_scores_communication <= 9.5\nmse = 14.0\nsamples = 4\nvalue = 69.0"] ;
361 -> 362 ;
363 [label="minimum_nights <= 8.0\nmse = 5.6\nsamples = 2\nvalue = 71.7"] ;
362 -> 363 ;
364 [label="mse = 0.0\nsamples = 1\nvalue = 70.0"] ;
363 -> 364 ;
365 [label="mse = 0.0\nsamples = 1\nvalue = 75.0"] ;
363 -> 365 ;
366 [label="mse = 0.0\nsamples = 2\nvalue = 65.0"] ;
362 -> 366 ;
367 [label="maximum_nights <= 569.0\nmse = 2.2\nsamples = 2\nvalue = 73.5"] ;
361 -> 367 ;
368 [label="mse = 0.0\nsamples = 1\nvalue = 75.0"] ;
367 -> 368 ;
369 [label="mse = 0.0\nsamples = 1\nvalue = 72.0"] ;
367 -> 369 ;
370 [label="minimum_nights <= 13.0\nmse = 18.2\nsamples = 5\nvalue = 60.6"] ;
360 -> 370 ;
371 [label="review_scores_value <= 8.0\nmse = 6.9\nsamples = 3\nvalue = 63.0"] ;
370 -> 371 ;
372 [label="mse = 0.0\nsamples = 1\nvalue = 59.0"] ;
371 -> 372 ;
373 [label="minimum_nights <= 6.5\nmse = 0.6\nsamples = 2\nvalue = 64.6"] ;
371 -> 373 ;
374 [label="mse = 0.0\nsamples = 1\nvalue = 65.0"] ;
373 -> 374 ;
375 [label="mse = 0.0\nsamples = 1\nvalue = 63.0"] ;
373 -> 375 ;
376 [label="mse = 0.0\nsamples = 2\nvalue = 55.0"] ;
370 -> 376 ;
377 [label="mse = 0.0\nsamples = 1\nvalue = 29.0"] ;
349 -> 377 ;
378 [label="review_scores_communication <= 9.0\nmse = 0.2\nsamples = 2\nvalue = 29.8"] ;
304 -> 378 ;
379 [label="mse = 0.0\nsamples = 1\nvalue = 29.0"] ;
378 -> 379 ;
380 [label="mse = 0.0\nsamples = 1\nvalue = 30.0"] ;
378 -> 380 ;
381 [label="review_scores_communication <= 8.5\nmse = 49.7\nsamples = 12\nvalue = 39.9"] ;
303 -> 381 ;
382 [label="review_scores_value <= 8.5\nmse = 4.0\nsamples = 2\nvalue = 28.0"] ;
381 -> 382 ;
383 [label="mse = 0.0\nsamples = 1\nvalue = 26.0"] ;
382 -> 383 ;
384 [label="mse = 0.0\nsamples = 1\nvalue = 30.0"] ;
382 -> 384 ;
385 [label="bathrooms <= 1.2\nmse = 34.2\nsamples = 10\nvalue = 41.5"] ;
381 -> 385 ;
386 [label="number_of_reviews <= 9.0\nmse = 26.8\nsamples = 8\nvalue = 40.2"] ;
385 -> 386 ;
387 [label="mse = 0.0\nsamples = 1\nvalue = 25.0"] ;
386 -> 387 ;
388 [label="number_of_reviews <= 44.5\nmse = 8.1\nsamples = 7\nvalue = 41.5"] ;
386 -> 388 ;
389 [label="review_scores_rating <= 84.5\nmse = 1.7\nsamples = 6\nvalue = 40.7"] ;
388 -> 389 ;
390 [label="mse = 0.0\nsamples = 1\nvalue = 44.0"] ;
389 -> 390 ;
391 [label="review_scores_rating <= 89.5\nmse = 0.6\nsamples = 5\nvalue = 40.4"] ;
389 -> 391 ;
392 [label="mse = 0.0\nsamples = 4\nvalue = 40.0"] ;
391 -> 392 ;
393 [label="mse = 0.0\nsamples = 1\nvalue = 42.0"] ;
391 -> 393 ;
394 [label="mse = 0.0\nsamples = 1\nvalue = 50.0"] ;
388 -> 394 ;
395 [label="mse = 0.0\nsamples = 2\nvalue = 50.0"] ;
385 -> 395 ;
396 [label="id <= 1000526.5\nmse = 517.5\nsamples = 62\nvalue = 63.1"] ;
302 -> 396 ;
397 [label="maximum_minimum_nights <= 2.5\nmse = 90.4\nsamples = 5\nvalue = 43.7"] ;
396 -> 397 ;
398 [label="mse = 0.0\nsamples = 1\nvalue = 72.0"] ;
397 -> 398 ;
399 [label="property_type_Apartment <= 0.5\nmse = 25.6\nsamples = 4\nvalue = 41.3"] ;
397 -> 399 ;
400 [label="neighbourhood_group_cleansed_Brooklyn <= 0.5\nmse = 0.7\nsamples = 2\nvalue = 38.4"] ;
399 -> 400 ;
401 [label="mse = 0.0\nsamples = 1\nvalue = 40.0"] ;
400 -> 401 ;
402 [label="mse = 0.0\nsamples = 1\nvalue = 38.0"] ;
400 -> 402 ;
403 [label="mse = 0.0\nsamples = 2\nvalue = 50.0"] ;
399 -> 403 ;
404 [label="number_of_reviews <= 6.5\nmse = 517.0\nsamples = 57\nvalue = 65.9"] ;
396 -> 404 ;
405 [label="review_scores_rating <= 95.5\nmse = 114.0\nsamples = 13\nvalue = 50.7"] ;
404 -> 405 ;
406 [label="minimum_nights_avg_ntm <= 3.5\nmse = 84.4\nsamples = 10\nvalue = 47.1"] ;
405 -> 406 ;
407 [label="maximum_minimum_nights <= 2.5\nmse = 12.0\nsamples = 3\nvalue = 57.0"] ;
406 -> 407 ;
408 [label="mse = 0.0\nsamples = 2\nvalue = 55.0"] ;
407 -> 408 ;
409 [label="mse = 0.0\nsamples = 1\nvalue = 63.0"] ;
407 -> 409 ;
410 [label="review_scores_location <= 9.5\nmse = 58.1\nsamples = 7\nvalue = 43.1"] ;
406 -> 410 ;
411 [label="neighbourhood_group_cleansed_Brooklyn <= 0.5\nmse = 1.0\nsamples = 2\nvalue = 31.0"] ;
410 -> 411 ;
412 [label="mse = 0.0\nsamples = 1\nvalue = 32.0"] ;
411 -> 412 ;
413 [label="mse = 0.0\nsamples = 1\nvalue = 30.0"] ;
411 -> 413 ;
414 [label="id <= 34852632.0\nmse = 26.6\nsamples = 5\nvalue = 46.1"] ;
410 -> 414 ;
415 [label="maximum_minimum_nights <= 5.5\nmse = 10.2\nsamples = 4\nvalue = 47.7"] ;
414 -> 415 ;
416 [label="minimum_minimum_nights <= 4.5\nmse = 0.9\nsamples = 2\nvalue = 51.3"] ;
415 -> 416 ;
417 [label="mse = 0.0\nsamples = 1\nvalue = 52.0"] ;
416 -> 417 ;
418 [label="mse = 0.0\nsamples = 1\nvalue = 50.0"] ;
416 -> 418 ;
419 [label="mse = 0.0\nsamples = 2\nvalue = 45.0"] ;
415 -> 419 ;
420 [label="mse = 0.0\nsamples = 1\nvalue = 35.0"] ;
414 -> 420 ;
421 [label="id <= 11444381.0\nmse = 54.0\nsamples = 3\nvalue = 61.0"] ;
405 -> 421 ;
422 [label="mse = 0.0\nsamples = 1\nvalue = 75.0"] ;
421 -> 422 ;
423 [label="maximum_nights_avg_ntm <= 578.0\nmse = 6.2\nsamples = 2\nvalue = 57.5"] ;
421 -> 423 ;
424 [label="mse = 0.0\nsamples = 1\nvalue = 55.0"] ;
423 -> 424 ;
425 [label="mse = 0.0\nsamples = 1\nvalue = 60.0"] ;
423 -> 425 ;
426 [label="review_scores_rating <= 93.5\nmse = 547.0\nsamples = 44\nvalue = 69.9"] ;
404 -> 426 ;
427 [label="maximum_minimum_nights <= 2.5\nmse = 697.5\nsamples = 20\nvalue = 77.7"] ;
426 -> 427 ;
428 [label="id <= 25217600.0\nmse = 254.0\nsamples = 10\nvalue = 61.4"] ;
427 -> 428 ;
429 [label="neighbourhood_group_cleansed_Brooklyn <= 0.5\nmse = 76.1\nsamples = 9\nvalue = 56.6"] ;
428 -> 429 ;
430 [label="minimum_nights_avg_ntm <= 1.5\nmse = 2.7\nsamples = 3\nvalue = 48.9"] ;
429 -> 430 ;
431 [label="review_scores_communication <= 9.5\nmse = 0.2\nsamples = 2\nvalue = 49.5"] ;
430 -> 431 ;
432 [label="mse = 0.0\nsamples = 1\nvalue = 49.0"] ;
431 -> 432 ;
433 [label="mse = 0.0\nsamples = 1\nvalue = 50.0"] ;
431 -> 433 ;
434 [label="mse = 0.0\nsamples = 1\nvalue = 45.0"] ;
430 -> 434 ;
435 [label="id <= 7393922.0\nmse = 51.1\nsamples = 6\nvalue = 62.6"] ;
429 -> 435 ;
436 [label="maximum_nights <= 578.0\nmse = 27.0\nsamples = 2\nvalue = 57.4"] ;
435 -> 436 ;
437 [label="mse = 0.0\nsamples = 1\nvalue = 60.0"] ;
436 -> 437 ;
438 [label="mse = 0.0\nsamples = 1\nvalue = 47.0"] ;
436 -> 438 ;
439 [label="maximum_nights <= 569.5\nmse = 6.5\nsamples = 4\nvalue = 69.0"] ;
435 -> 439 ;
440 [label="mse = 0.0\nsamples = 1\nvalue = 65.0"] ;
439 -> 440 ;
441 [label="maximum_minimum_nights <= 1.5\nmse = 1.6\nsamples = 3\nvalue = 70.3"] ;
439 -> 441 ;
442 [label="mse = 0.0\nsamples = 1\nvalue = 72.0"] ;
441 -> 442 ;
443 [label="id <= 13824216.5\nmse = 0.2\nsamples = 2\nvalue = 69.5"] ;
441 -> 443 ;
444 [label="mse = 0.0\nsamples = 1\nvalue = 70.0"] ;
443 -> 444 ;
445 [label="mse = 0.0\nsamples = 1\nvalue = 69.0"] ;
443 -> 445 ;
446 [label="mse = 0.0\nsamples = 1\nvalue = 100.0"] ;
428 -> 446 ;
447 [label="host_listings_count <= 1.5\nmse = 639.6\nsamples = 10\nvalue = 92.4"] ;
427 -> 447 ;
448 [label="number_of_reviews_ltm <= 2.5\nmse = 220.4\nsamples = 4\nvalue = 72.1"] ;
447 -> 448 ;
449 [label="review_scores_accuracy <= 9.5\nmse = 25.0\nsamples = 2\nvalue = 95.0"] ;
448 -> 449 ;
450 [label="mse = 0.0\nsamples = 1\nvalue = 100.0"] ;
449 -> 450 ;
451 [label="mse = 0.0\nsamples = 1\nvalue = 90.0"] ;
449 -> 451 ;
452 [label="maximum_nights <= 577.5\nmse = 6.0\nsamples = 2\nvalue = 63.0"] ;
448 -> 452 ;
453 [label="mse = 0.0\nsamples = 1\nvalue = 60.0"] ;
452 -> 453 ;
454 [label="mse = 0.0\nsamples = 1\nvalue = 65.0"] ;
452 -> 454 ;
455 [label="id <= 6389476.5\nmse = 523.8\nsamples = 6\nvalue = 103.4"] ;
447 -> 455 ;
456 [label="mse = 0.0\nsamples = 1\nvalue = 150.0"] ;
455 -> 456 ;
457 [label="number_of_reviews <= 15.0\nmse = 152.1\nsamples = 5\nvalue = 94.9"] ;
455 -> 457 ;
458 [label="number_of_reviews <= 10.5\nmse = 52.0\nsamples = 3\nvalue = 104.0"] ;
457 -> 458 ;
459 [label="review_scores_rating <= 91.5\nmse = 1.0\nsamples = 2\nvalue = 100.8"] ;
458 -> 459 ;
460 [label="mse = 0.0\nsamples = 1\nvalue = 100.0"] ;
459 -> 460 ;
461 [label="mse = 0.0\nsamples = 1\nvalue = 102.0"] ;
459 -> 461 ;
462 [label="mse = 0.0\nsamples = 1\nvalue = 120.0"] ;
458 -> 462 ;
463 [label="property_type_Apartment <= 0.5\nmse = 54.0\nsamples = 2\nvalue = 84.0"] ;
457 -> 463 ;
464 [label="mse = 0.0\nsamples = 1\nvalue = 90.0"] ;
463 -> 464 ;
465 [label="mse = 0.0\nsamples = 1\nvalue = 75.0"] ;
463 -> 465 ;
466 [label="property_type_House <= 0.5\nmse = 223.1\nsamples = 24\nvalue = 61.0"] ;
426 -> 466 ;
467 [label="id <= 27114492.0\nmse = 181.2\nsamples = 21\nvalue = 63.3"] ;
466 -> 467 ;
468 [label="review_scores_checkin <= 9.5\nmse = 138.2\nsamples = 17\nvalue = 59.6"] ;
467 -> 468 ;
469 [label="mse = 0.0\nsamples = 1\nvalue = 99.0"] ;
468 -> 469 ;
470 [label="maximum_maximum_nights <= 1117.5\nmse = 73.7\nsamples = 16\nvalue = 57.9"] ;
468 -> 470 ;
471 [label="number_of_reviews <= 60.5\nmse = 51.3\nsamples = 10\nvalue = 62.1"] ;
470 -> 471 ;
472 [label="id <= 1628061.5\nmse = 32.5\nsamples = 9\nvalue = 63.4"] ;
471 -> 472 ;
473 [label="review_scores_accuracy <= 9.5\nmse = 12.2\nsamples = 2\nvalue = 71.5"] ;
472 -> 473 ;
474 [label="mse = 0.0\nsamples = 1\nvalue = 68.0"] ;
473 -> 474 ;
475 [label="mse = 0.0\nsamples = 1\nvalue = 75.0"] ;
473 -> 475 ;
476 [label="number_of_reviews_ltm <= 2.5\nmse = 23.0\nsamples = 7\nvalue = 62.0"] ;
472 -> 476 ;
477 [label="mse = 0.0\nsamples = 1\nvalue = 51.0"] ;
476 -> 477 ;
478 [label="minimum_nights <= 2.5\nmse = 13.1\nsamples = 6\nvalue = 63.0"] ;
476 -> 478 ;
479 [label="mse = 0.0\nsamples = 3\nvalue = 65.0"] ;
478 -> 479 ;
480 [label="minimum_maximum_nights <= 645.0\nmse = 18.2\nsamples = 3\nvalue = 60.6"] ;
478 -> 480 ;
481 [label="neighbourhood_group_cleansed_Brooklyn <= 0.5\nmse = 0.8\nsamples = 2\nvalue = 58.5"] ;
480 -> 481 ;
482 [label="mse = 0.0\nsamples = 1\nvalue = 59.0"] ;
481 -> 482 ;
483 [label="mse = 0.0\nsamples = 1\nvalue = 57.0"] ;
481 -> 483 ;
484 [label="mse = 0.0\nsamples = 1\nvalue = 69.0"] ;
480 -> 484 ;
485 [label="mse = 0.0\nsamples = 1\nvalue = 45.0"] ;
471 -> 485 ;
486 [label="id <= 10736185.0\nmse = 17.6\nsamples = 6\nvalue = 49.9"] ;
470 -> 486 ;
487 [label="maximum_minimum_nights <= 15.5\nmse = 2.2\nsamples = 2\nvalue = 56.5"] ;
486 -> 487 ;
488 [label="mse = 0.0\nsamples = 1\nvalue = 55.0"] ;
487 -> 488 ;
489 [label="mse = 0.0\nsamples = 1\nvalue = 58.0"] ;
487 -> 489 ;
490 [label="id <= 21044515.0\nmse = 3.2\nsamples = 4\nvalue = 47.7"] ;
486 -> 490 ;
491 [label="review_scores_rating <= 94.5\nmse = 0.8\nsamples = 3\nvalue = 46.5"] ;
490 -> 491 ;
492 [label="mse = 0.0\nsamples = 2\nvalue = 47.0"] ;
491 -> 492 ;
493 [label="mse = 0.0\nsamples = 1\nvalue = 45.0"] ;
491 -> 493 ;
494 [label="mse = 0.0\nsamples = 1\nvalue = 50.0"] ;
490 -> 494 ;
495 [label="property_type_Apartment <= 0.5\nmse = 72.2\nsamples = 4\nvalue = 78.3"] ;
467 -> 495 ;
496 [label="mse = 0.0\nsamples = 1\nvalue = 90.0"] ;
495 -> 496 ;
497 [label="maximum_maximum_nights <= 597.5\nmse = 6.2\nsamples = 3\nvalue = 72.5"] ;
495 -> 497 ;
498 [label="mse = 0.0\nsamples = 2\nvalue = 75.0"] ;
497 -> 498 ;
499 [label="mse = 0.0\nsamples = 1\nvalue = 70.0"] ;
497 -> 499 ;
500 [label="review_scores_location <= 9.5\nmse = 27.6\nsamples = 3\nvalue = 37.3"] ;
466 -> 500 ;
501 [label="mse = 0.0\nsamples = 1\nvalue = 30.0"] ;
500 -> 501 ;
502 [label="guests_included <= 1.5\nmse = 1.0\nsamples = 2\nvalue = 41.0"] ;
500 -> 502 ;
503 [label="mse = 0.0\nsamples = 1\nvalue = 42.0"] ;
502 -> 503 ;
504 [label="mse = 0.0\nsamples = 1\nvalue = 40.0"] ;
502 -> 504 ;
505 [label="minimum_nights_avg_ntm <= 4.5\nmse = 1436.4\nsamples = 37\nvalue = 76.0"] ;
277 -> 505 ;
506 [label="minimum_nights <= 3.5\nmse = 2037.1\nsamples = 22\nvalue = 87.6"] ;
505 -> 506 ;
507 [label="property_type_Apartment <= 0.5\nmse = 883.9\nsamples = 20\nvalue = 78.9"] ;
506 -> 507 ;
508 [label="review_scores_location <= 8.5\nmse = 1036.8\nsamples = 4\nvalue = 124.2"] ;
507 -> 508 ;
509 [label="mse = 0.0\nsamples = 1\nvalue = 55.0"] ;
508 -> 509 ;
510 [label="maximum_minimum_nights <= 1.5\nmse = 96.0\nsamples = 3\nvalue = 138.0"] ;
508 -> 510 ;
511 [label="mse = 0.0\nsamples = 1\nvalue = 120.0"] ;
510 -> 511 ;
512 [label="minimum_maximum_nights <= 652.5\nmse = 18.8\nsamples = 2\nvalue = 142.5"] ;
510 -> 512 ;
513 [label="mse = 0.0\nsamples = 1\nvalue = 140.0"] ;
512 -> 513 ;
514 [label="mse = 0.0\nsamples = 1\nvalue = 150.0"] ;
512 -> 514 ;
515 [label="maximum_nights <= 25.5\nmse = 267.6\nsamples = 16\nvalue = 68.5"] ;
507 -> 515 ;
516 [label="number_of_reviews <= 4.0\nmse = 59.4\nsamples = 4\nvalue = 57.8"] ;
515 -> 516 ;
517 [label="review_scores_location <= 9.5\nmse = 0.2\nsamples = 2\nvalue = 49.5"] ;
516 -> 517 ;
518 [label="mse = 0.0\nsamples = 1\nvalue = 50.0"] ;
517 -> 518 ;
519 [label="mse = 0.0\nsamples = 1\nvalue = 49.0"] ;
517 -> 519 ;
520 [label="maximum_nights_avg_ntm <= 12.0\nmse = 22.2\nsamples = 2\nvalue = 63.3"] ;
516 -> 520 ;
521 [label="mse = 0.0\nsamples = 1\nvalue = 60.0"] ;
520 -> 521 ;
522 [label="mse = 0.0\nsamples = 1\nvalue = 70.0"] ;
520 -> 522 ;
523 [label="number_of_reviews_ltm <= 1.5\nmse = 281.4\nsamples = 12\nvalue = 75.2"] ;
515 -> 523 ;
524 [label="beds <= 0.5\nmse = 181.7\nsamples = 5\nvalue = 63.0"] ;
523 -> 524 ;
525 [label="mse = 0.0\nsamples = 1\nvalue = 32.0"] ;
524 -> 525 ;
526 [label="minimum_nights <= 1.5\nmse = 25.1\nsamples = 4\nvalue = 68.2"] ;
524 -> 526 ;
527 [label="mse = 0.0\nsamples = 1\nvalue = 75.0"] ;
526 -> 527 ;
528 [label="maximum_nights_avg_ntm <= 105.0\nmse = 19.0\nsamples = 3\nvalue = 66.8"] ;
526 -> 528 ;
529 [label="mse = 0.0\nsamples = 1\nvalue = 70.0"] ;
528 -> 529 ;
530 [label="maximum_minimum_nights <= 2.5\nmse = 9.0\nsamples = 2\nvalue = 62.0"] ;
528 -> 530 ;
531 [label="mse = 0.0\nsamples = 1\nvalue = 65.0"] ;
530 -> 531 ;
532 [label="mse = 0.0\nsamples = 1\nvalue = 59.0"] ;
530 -> 532 ;
533 [label="review_scores_accuracy <= 9.0\nmse = 153.6\nsamples = 7\nvalue = 84.7"] ;
523 -> 533 ;
534 [label="mse = 0.0\nsamples = 1\nvalue = 65.0"] ;
533 -> 534 ;
535 [label="host_listings_count <= 1.5\nmse = 55.3\nsamples = 6\nvalue = 90.3"] ;
533 -> 535 ;
536 [label="id <= 18697578.0\nmse = 40.5\nsamples = 4\nvalue = 86.0"] ;
535 -> 536 ;
537 [label="id <= 2403907.5\nmse = 56.2\nsamples = 2\nvalue = 82.5"] ;
536 -> 537 ;
538 [label="mse = 0.0\nsamples = 1\nvalue = 90.0"] ;
537 -> 538 ;
539 [label="mse = 0.0\nsamples = 1\nvalue = 75.0"] ;
537 -> 539 ;
540 [label="number_of_reviews <= 2.5\nmse = 0.2\nsamples = 2\nvalue = 89.5"] ;
536 -> 540 ;
541 [label="mse = 0.0\nsamples = 1\nvalue = 90.0"] ;
540 -> 541 ;
542 [label="mse = 0.0\nsamples = 1\nvalue = 89.0"] ;
540 -> 542 ;
543 [label="review_scores_value <= 8.5\nmse = 18.0\nsamples = 2\nvalue = 96.0"] ;
535 -> 543 ;
544 [label="mse = 0.0\nsamples = 1\nvalue = 90.0"] ;
543 -> 544 ;
545 [label="mse = 0.0\nsamples = 1\nvalue = 99.0"] ;
543 -> 545 ;
546 [label="id <= 25724513.0\nmse = 5000.0\nsamples = 2\nvalue = 180.0"] ;
506 -> 546 ;
547 [label="mse = 0.0\nsamples = 1\nvalue = 80.0"] ;
546 -> 547 ;
548 [label="mse = 0.0\nsamples = 1\nvalue = 230.0"] ;
546 -> 548 ;
549 [label="id <= 12005293.5\nmse = 351.1\nsamples = 15\nvalue = 61.9"] ;
505 -> 549 ;
550 [label="review_scores_location <= 9.5\nmse = 412.5\nsamples = 3\nvalue = 90.0"] ;
549 -> 550 ;
551 [label="mse = 0.0\nsamples = 1\nvalue = 70.0"] ;
550 -> 551 ;
552 [label="property_type_Apartment <= 0.5\nmse = 25.0\nsamples = 2\nvalue = 110.0"] ;
550 -> 552 ;
553 [label="mse = 0.0\nsamples = 1\nvalue = 105.0"] ;
552 -> 553 ;
554 [label="mse = 0.0\nsamples = 1\nvalue = 115.0"] ;
552 -> 554 ;
555 [label="number_of_reviews <= 3.5\nmse = 195.0\nsamples = 12\nvalue = 57.4"] ;
549 -> 555 ;
556 [label="id <= 20845425.0\nmse = 219.4\nsamples = 9\nvalue = 62.6"] ;
555 -> 556 ;
557 [label="mse = 0.0\nsamples = 1\nvalue = 95.0"] ;
556 -> 557 ;
558 [label="host_listings_count <= 0.5\nmse = 78.9\nsamples = 8\nvalue = 57.9"] ;
556 -> 558 ;
559 [label="review_scores_location <= 9.0\nmse = 27.4\nsamples = 3\nvalue = 66.0"] ;
558 -> 559 ;
560 [label="mse = 0.0\nsamples = 1\nvalue = 72.0"] ;
559 -> 560 ;
561 [label="minimum_maximum_nights <= 577.5\nmse = 0.8\nsamples = 2\nvalue = 61.5"] ;
559 -> 561 ;
562 [label="mse = 0.0\nsamples = 1\nvalue = 60.0"] ;
561 -> 562 ;
563 [label="mse = 0.0\nsamples = 1\nvalue = 62.0"] ;
561 -> 563 ;
564 [label="review_scores_checkin <= 9.5\nmse = 0.1\nsamples = 5\nvalue = 49.9"] ;
558 -> 564 ;
565 [label="mse = 0.0\nsamples = 1\nvalue = 49.0"] ;
564 -> 565 ;
566 [label="mse = 0.0\nsamples = 4\nvalue = 50.0"] ;
564 -> 566 ;
567 [label="review_scores_communication <= 9.5\nmse = 22.2\nsamples = 3\nvalue = 48.3"] ;
555 -> 567 ;
568 [label="mse = 0.0\nsamples = 1\nvalue = 55.0"] ;
567 -> 568 ;
569 [label="mse = 0.0\nsamples = 2\nvalue = 45.0"] ;
567 -> 569 ;
570 [label="number_of_reviews <= 49.0\nmse = 1360.0\nsamples = 3\nvalue = 130.0"] ;
276 -> 570 ;
571 [label="bathrooms <= 1.2\nmse = 25.0\nsamples = 2\nvalue = 85.0"] ;
570 -> 571 ;
572 [label="mse = 0.0\nsamples = 1\nvalue = 90.0"] ;
571 -> 572 ;
573 [label="mse = 0.0\nsamples = 1\nvalue = 80.0"] ;
571 -> 573 ;
574 [label="mse = 0.0\nsamples = 1\nvalue = 160.0"] ;
570 -> 574 ;
575 [label="minimum_nights_avg_ntm <= 3.3\nmse = 430.5\nsamples = 309\nvalue = 57.2"] ;
275 -> 575 ;
576 [label="review_scores_rating <= 96.5\nmse = 529.9\nsamples = 168\nvalue = 60.3"] ;
575 -> 576 ;
577 [label="number_of_reviews <= 26.0\nmse = 271.8\nsamples = 47\nvalue = 52.6"] ;
576 -> 577 ;
578 [label="minimum_nights <= 2.5\nmse = 255.7\nsamples = 35\nvalue = 57.9"] ;
577 -> 578 ;
579 [label="review_scores_checkin <= 8.5\nmse = 227.7\nsamples = 31\nvalue = 60.3"] ;
578 -> 579 ;
580 [label="maximum_minimum_nights <= 1.5\nmse = 6.2\nsamples = 2\nvalue = 32.5"] ;
579 -> 580 ;
581 [label="mse = 0.0\nsamples = 1\nvalue = 35.0"] ;
580 -> 581 ;
582 [label="mse = 0.0\nsamples = 1\nvalue = 30.0"] ;
580 -> 582 ;
583 [label="bathrooms <= 1.2\nmse = 199.7\nsamples = 29\nvalue = 61.6"] ;
579 -> 583 ;
584 [label="number_of_reviews_ltm <= 11.0\nmse = 206.7\nsamples = 25\nvalue = 59.4"] ;
583 -> 584 ;
585 [label="number_of_reviews_ltm <= 9.5\nmse = 190.7\nsamples = 23\nvalue = 57.7"] ;
584 -> 585 ;
586 [label="id <= 38118544.0\nmse = 158.0\nsamples = 21\nvalue = 59.3"] ;
585 -> 586 ;
587 [label="number_of_reviews <= 2.5\nmse = 155.7\nsamples = 19\nvalue = 57.5"] ;
586 -> 587 ;
588 [label="number_of_reviews <= 1.5\nmse = 10.2\nsamples = 3\nvalue = 47.5"] ;
587 -> 588 ;
589 [label="mse = 0.0\nsamples = 1\nvalue = 42.0"] ;
588 -> 589 ;
590 [label="host_listings_count <= 1.5\nmse = 0.2\nsamples = 2\nvalue = 49.3"] ;
588 -> 590 ;
591 [label="mse = 0.0\nsamples = 1\nvalue = 49.0"] ;
590 -> 591 ;
592 [label="mse = 0.0\nsamples = 1\nvalue = 50.0"] ;
590 -> 592 ;
593 [label="review_scores_cleanliness <= 8.5\nmse = 160.5\nsamples = 16\nvalue = 59.4"] ;
587 -> 593 ;
594 [label="mse = 0.0\nsamples = 1\nvalue = 100.0"] ;
593 -> 594 ;
595 [label="number_of_reviews_ltm <= 2.5\nmse = 85.8\nsamples = 15\nvalue = 57.4"] ;
593 -> 595 ;
596 [label="id <= 27252660.0\nmse = 54.0\nsamples = 3\nvalue = 67.0"] ;
595 -> 596 ;
597 [label="maximum_maximum_nights <= 745.0\nmse = 8.0\nsamples = 2\nvalue = 71.0"] ;
596 -> 597 ;
598 [label="mse = 0.0\nsamples = 1\nvalue = 69.0"] ;
597 -> 598 ;
599 [label="mse = 0.0\nsamples = 1\nvalue = 75.0"] ;
597 -> 599 ;
600 [label="mse = 0.0\nsamples = 1\nvalue = 55.0"] ;
596 -> 600 ;
601 [label="review_scores_communication <= 9.5\nmse = 66.6\nsamples = 12\nvalue = 55.2"] ;
595 -> 601 ;
602 [label="mse = 0.0\nsamples = 1\nvalue = 35.0"] ;
601 -> 602 ;
603 [label="hos2_is_superhos2 <= 1.5\nmse = 43.7\nsamples = 11\nvalue = 56.4"] ;
601 -> 603 ;
604 [label="review_scores_accuracy <= 9.5\nmse = 29.1\nsamples = 9\nvalue = 54.9"] ;
603 -> 604 ;
605 [label="review_scores_location <= 9.5\nmse = 9.0\nsamples = 2\nvalue = 47.0"] ;
604 -> 605 ;
606 [label="mse = 0.0\nsamples = 1\nvalue = 50.0"] ;
605 -> 606 ;
607 [label="mse = 0.0\nsamples = 1\nvalue = 44.0"] ;
605 -> 607 ;
608 [label="review_scores_rating <= 94.0\nmse = 20.5\nsamples = 7\nvalue = 56.2"] ;
604 -> 608 ;
609 [label="review_scores_cleanliness <= 9.5\nmse = 4.0\nsamples = 3\nvalue = 61.0"] ;
608 -> 609 ;
610 [label="mse = 0.0\nsamples = 2\nvalue = 60.0"] ;
609 -> 610 ;
611 [label="mse = 0.0\nsamples = 1\nvalue = 65.0"] ;
609 -> 611 ;
612 [label="number_of_reviews_ltm <= 6.0\nmse = 3.6\nsamples = 4\nvalue = 52.7"] ;
608 -> 612 ;
613 [label="mse = 0.0\nsamples = 2\nvalue = 50.0"] ;
612 -> 613 ;
614 [label="review_scores_cleanliness <= 9.5\nmse = 1.0\nsamples = 2\nvalue = 53.8"] ;
612 -> 614 ;
615 [label="mse = 0.0\nsamples = 1\nvalue = 53.0"] ;
614 -> 615 ;
616 [label="mse = 0.0\nsamples = 1\nvalue = 55.0"] ;
614 -> 616 ;
617 [label="property_type_House <= 0.5\nmse = 6.2\nsamples = 2\nvalue = 67.5"] ;
603 -> 617 ;
618 [label="mse = 0.0\nsamples = 1\nvalue = 65.0"] ;
617 -> 618 ;
619 [label="mse = 0.0\nsamples = 1\nvalue = 70.0"] ;
617 -> 619 ;
620 [label="host_listings_count <= 1.5\nmse = 16.0\nsamples = 2\nvalue = 71.0"] ;
586 -> 620 ;
621 [label="mse = 0.0\nsamples = 1\nvalue = 67.0"] ;
620 -> 621 ;
622 [label="mse = 0.0\nsamples = 1\nvalue = 75.0"] ;
620 -> 622 ;
623 [label="review_scores_rating <= 95.0\nmse = 6.2\nsamples = 2\nvalue = 32.5"] ;
585 -> 623 ;
624 [label="mse = 0.0\nsamples = 1\nvalue = 35.0"] ;
623 -> 624 ;
625 [label="mse = 0.0\nsamples = 1\nvalue = 30.0"] ;
623 -> 625 ;
626 [label="review_scores_cleanliness <= 9.5\nmse = 10.9\nsamples = 2\nvalue = 77.7"] ;
584 -> 626 ;
627 [label="mse = 0.0\nsamples = 1\nvalue = 80.0"] ;
626 -> 627 ;
628 [label="mse = 0.0\nsamples = 1\nvalue = 73.0"] ;
626 -> 628 ;
629 [label="number_of_reviews_ltm <= 3.5\nmse = 13.3\nsamples = 4\nvalue = 72.9"] ;
583 -> 629 ;
630 [label="mse = 0.0\nsamples = 2\nvalue = 70.0"] ;
629 -> 630 ;
631 [label="bathrooms <= 1.8\nmse = 5.6\nsamples = 2\nvalue = 76.7"] ;
629 -> 631 ;
632 [label="mse = 0.0\nsamples = 1\nvalue = 80.0"] ;
631 -> 632 ;
633 [label="mse = 0.0\nsamples = 1\nvalue = 75.0"] ;
631 -> 633 ;
634 [label="number_of_reviews_ltm <= 11.0\nmse = 109.9\nsamples = 4\nvalue = 40.3"] ;
578 -> 634 ;
635 [label="number_of_reviews_ltm <= 5.5\nmse = 2.0\nsamples = 2\nvalue = 31.0"] ;
634 -> 635 ;
636 [label="mse = 0.0\nsamples = 1\nvalue = 33.0"] ;
635 -> 636 ;
637 [label="mse = 0.0\nsamples = 1\nvalue = 30.0"] ;
635 -> 637 ;
638 [label="minimum_maximum_nights <= 75.0\nmse = 43.6\nsamples = 2\nvalue = 49.7"] ;
634 -> 638 ;
639 [label="mse = 0.0\nsamples = 1\nvalue = 45.0"] ;
638 -> 639 ;
640 [label="mse = 0.0\nsamples = 1\nvalue = 59.0"] ;
638 -> 640 ;
641 [label="neighbourhood_group_cleansed_Bronx <= 0.5\nmse = 124.5\nsamples = 12\nvalue = 41.5"] ;
577 -> 641 ;
642 [label="number_of_reviews_ltm <= 8.5\nmse = 80.7\nsamples = 10\nvalue = 45.4"] ;
641 -> 642 ;
643 [label="review_scores_rating <= 94.5\nmse = 1.1\nsamples = 3\nvalue = 36.6"] ;
642 -> 643 ;
644 [label="mse = 0.0\nsamples = 1\nvalue = 39.0"] ;
643 -> 644 ;
645 [label="review_scores_cleanliness <= 9.5\nmse = 0.1\nsamples = 2\nvalue = 36.2"] ;
643 -> 645 ;
646 [label="mse = 0.0\nsamples = 1\nvalue = 36.0"] ;
645 -> 646 ;
647 [label="mse = 0.0\nsamples = 1\nvalue = 37.0"] ;
645 -> 647 ;
648 [label="number_of_reviews <= 31.5\nmse = 55.6\nsamples = 7\nvalue = 50.5"] ;
642 -> 648 ;
649 [label="mse = 0.0\nsamples = 1\nvalue = 35.0"] ;
648 -> 649 ;
650 [label="id <= 258545.5\nmse = 36.8\nsamples = 6\nvalue = 51.9"] ;
648 -> 650 ;
651 [label="mse = 0.0\nsamples = 1\nvalue = 41.0"] ;
650 -> 651 ;
652 [label="number_of_reviews_ltm <= 15.5\nmse = 12.7\nsamples = 5\nvalue = 54.3"] ;
650 -> 652 ;
653 [label="mse = 0.0\nsamples = 2\nvalue = 60.0"] ;
652 -> 653 ;
654 [label="review_scores_rating <= 94.0\nmse = 4.5\nsamples = 3\nvalue = 52.7"] ;
652 -> 654 ;
655 [label="number_of_reviews <= 73.0\nmse = 1.0\nsamples = 2\nvalue = 51.0"] ;
654 -> 655 ;
656 [label="mse = 0.0\nsamples = 1\nvalue = 50.0"] ;
655 -> 656 ;
657 [label="mse = 0.0\nsamples = 1\nvalue = 52.0"] ;
655 -> 657 ;
658 [label="mse = 0.0\nsamples = 1\nvalue = 55.0"] ;
654 -> 658 ;
659 [label="review_scores_rating <= 94.0\nmse = 24.0\nsamples = 2\nvalue = 27.0"] ;
641 -> 659 ;
660 [label="mse = 0.0\nsamples = 1\nvalue = 23.0"] ;
659 -> 660 ;
661 [label="mse = 0.0\nsamples = 1\nvalue = 33.0"] ;
659 -> 661 ;
662 [label="maximum_nights <= 626.5\nmse = 596.7\nsamples = 121\nvalue = 63.2"] ;
576 -> 662 ;
663 [label="number_of_reviews <= 2.5\nmse = 618.2\nsamples = 68\nvalue = 68.3"] ;
662 -> 663 ;
664 [label="maximum_maximum_nights <= 195.0\nmse = 1200.8\nsamples = 14\nvalue = 83.5"] ;
663 -> 664 ;
665 [label="id <= 38026660.0\nmse = 696.3\nsamples = 12\nvalue = 74.1"] ;
664 -> 665 ;
666 [label="id <= 7207195.5\nmse = 275.2\nsamples = 11\nvalue = 69.3"] ;
665 -> 666 ;
667 [label="id <= 1187084.0\nmse = 56.9\nsamples = 2\nvalue = 83.7"] ;
666 -> 667 ;
668 [label="mse = 0.0\nsamples = 1\nvalue = 73.0"] ;
667 -> 668 ;
669 [label="mse = 0.0\nsamples = 1\nvalue = 89.0"] ;
667 -> 669 ;
670 [label="id <= 30672187.0\nmse = 237.0\nsamples = 9\nvalue = 62.7"] ;
666 -> 670 ;
671 [label="id <= 27054106.0\nmse = 205.6\nsamples = 3\nvalue = 43.3"] ;
670 -> 671 ;
672 [label="maximum_nights_avg_ntm <= 52.0\nmse = 56.2\nsamples = 2\nvalue = 52.5"] ;
671 -> 672 ;
673 [label="mse = 0.0\nsamples = 1\nvalue = 60.0"] ;
672 -> 673 ;
674 [label="mse = 0.0\nsamples = 1\nvalue = 45.0"] ;
672 -> 674 ;
675 [label="mse = 0.0\nsamples = 1\nvalue = 25.0"] ;
671 -> 675 ;
676 [label="id <= 33697184.0\nmse = 100.2\nsamples = 6\nvalue = 68.5"] ;
670 -> 676 ;
677 [label="maximum_maximum_nights <= 12.5\nmse = 48.0\nsamples = 4\nvalue = 73.6"] ;
676 -> 677 ;
678 [label="mse = 0.0\nsamples = 1\nvalue = 60.0"] ;
677 -> 678 ;
679 [label="review_scores_location <= 9.0\nmse = 20.1\nsamples = 3\nvalue = 75.8"] ;
677 -> 679 ;
680 [label="mse = 0.0\nsamples = 1\nvalue = 82.0"] ;
679 -> 680 ;
681 [label="minimum_nights <= 2.0\nmse = 1.7\nsamples = 2\nvalue = 72.8"] ;
679 -> 681 ;
682 [label="mse = 0.0\nsamples = 1\nvalue = 75.0"] ;
681 -> 682 ;
683 [label="mse = 0.0\nsamples = 1\nvalue = 72.0"] ;
681 -> 683 ;
684 [label="maximum_nights_avg_ntm <= 28.0\nmse = 22.2\nsamples = 2\nvalue = 56.7"] ;
676 -> 684 ;
685 [label="mse = 0.0\nsamples = 1\nvalue = 60.0"] ;
684 -> 685 ;
686 [label="mse = 0.0\nsamples = 1\nvalue = 50.0"] ;
684 -> 686 ;
687 [label="mse = 0.0\nsamples = 1\nvalue = 165.0"] ;
665 -> 687 ;
688 [label="minimum_nights_avg_ntm <= 2.0\nmse = 26.9\nsamples = 2\nvalue = 146.3"] ;
664 -> 688 ;
689 [label="mse = 0.0\nsamples = 1\nvalue = 150.0"] ;
688 -> 689 ;
690 [label="mse = 0.0\nsamples = 1\nvalue = 139.0"] ;
688 -> 690 ;
691 [label="id <= 28608430.0\nmse = 392.5\nsamples = 54\nvalue = 64.4"] ;
663 -> 691 ;
692 [label="number_of_reviews <= 3.5\nmse = 357.6\nsamples = 36\nvalue = 70.2"] ;
691 -> 692 ;
693 [label="review_scores_communication <= 9.5\nmse = 98.8\nsamples = 3\nvalue = 51.8"] ;
692 -> 693 ;
694 [label="mse = 0.0\nsamples = 1\nvalue = 38.0"] ;
693 -> 694 ;
695 [label="minimum_nights_avg_ntm <= 2.5\nmse = 4.7\nsamples = 2\nvalue = 58.8"] ;
693 -> 695 ;
696 [label="mse = 0.0\nsamples = 1\nvalue = 55.0"] ;
695 -> 696 ;
697 [label="mse = 0.0\nsamples = 1\nvalue = 60.0"] ;
695 -> 697 ;
698 [label="neighbourhood_group_cleansed_Bronx <= 0.5\nmse = 345.1\nsamples = 33\nvalue = 72.2"] ;
692 -> 698 ;
699 [label="review_scores_checkin <= 9.5\nmse = 310.6\nsamples = 30\nvalue = 73.8"] ;
698 -> 699 ;
700 [label="mse = 0.0\nsamples = 1\nvalue = 120.0"] ;
699 -> 700 ;
701 [label="review_scores_cleanliness <= 9.5\nmse = 273.9\nsamples = 29\nvalue = 72.9"] ;
699 -> 701 ;
702 [label="number_of_reviews <= 8.0\nmse = 255.2\nsamples = 8\nvalue = 82.6"] ;
701 -> 702 ;
703 [label="mse = 0.0\nsamples = 1\nvalue = 120.0"] ;
702 -> 703 ;
704 [label="number_of_reviews <= 57.0\nmse = 150.2\nsamples = 7\nvalue = 79.5"] ;
702 -> 704 ;
705 [label="minimum_nights <= 1.5\nmse = 79.4\nsamples = 6\nvalue = 75.4"] ;
704 -> 705 ;
706 [label="mse = 0.0\nsamples = 1\nvalue = 100.0"] ;
705 -> 706 ;
707 [label="number_of_reviews <= 25.5\nmse = 13.6\nsamples = 5\nvalue = 72.7"] ;
705 -> 707 ;
708 [label="mse = 0.0\nsamples = 3\nvalue = 75.0"] ;
707 -> 708 ;
709 [label="maximum_nights <= 197.5\nmse = 8.0\nsamples = 2\nvalue = 68.0"] ;
707 -> 709 ;
710 [label="mse = 0.0\nsamples = 1\nvalue = 70.0"] ;
709 -> 710 ;
711 [label="mse = 0.0\nsamples = 1\nvalue = 64.0"] ;
709 -> 711 ;
712 [label="mse = 0.0\nsamples = 1\nvalue = 100.0"] ;
704 -> 712 ;
713 [label="property_type_Townhouse <= 0.5\nmse = 236.9\nsamples = 21\nvalue = 69.6"] ;
701 -> 713 ;
714 [label="bathrooms <= 1.2\nmse = 199.2\nsamples = 20\nvalue = 67.9"] ;
713 -> 714 ;
715 [label="review_scores_rating <= 98.5\nmse = 158.8\nsamples = 19\nvalue = 69.6"] ;
714 -> 715 ;
716 [label="property_type_House <= 0.5\nmse = 30.9\nsamples = 7\nvalue = 60.5"] ;
715 -> 716 ;
717 [label="number_of_reviews <= 33.5\nmse = 13.0\nsamples = 6\nvalue = 62.4"] ;
716 -> 717 ;
718 [label="host_listings_count <= 2.0\nmse = 4.0\nsamples = 3\nvalue = 66.0"] ;
717 -> 718 ;
719 [label="mse = 0.0\nsamples = 2\nvalue = 65.0"] ;
718 -> 719 ;
720 [label="mse = 0.0\nsamples = 1\nvalue = 70.0"] ;
718 -> 720 ;
721 [label="number_of_reviews <= 69.5\nmse = 0.2\nsamples = 3\nvalue = 59.3"] ;
717 -> 721 ;
722 [label="mse = 0.0\nsamples = 1\nvalue = 60.0"] ;
721 -> 722 ;
723 [label="mse = 0.0\nsamples = 2\nvalue = 59.0"] ;
721 -> 723 ;
724 [label="mse = 0.0\nsamples = 1\nvalue = 50.0"] ;
716 -> 724 ;
725 [label="minimum_nights_avg_ntm <= 2.5\nmse = 154.0\nsamples = 12\nvalue = 75.3"] ;
715 -> 725 ;
726 [label="maximum_nights <= 24.5\nmse = 83.4\nsamples = 10\nvalue = 72.4"] ;
725 -> 726 ;
727 [label="mse = 0.0\nsamples = 1\nvalue = 99.0"] ;
726 -> 727 ;
728 [label="id <= 9819225.0\nmse = 46.6\nsamples = 9\nvalue = 70.9"] ;
726 -> 728 ;
729 [label="maximum_nights <= 65.0\nmse = 48.0\nsamples = 2\nvalue = 62.0"] ;
728 -> 729 ;
730 [label="mse = 0.0\nsamples = 1\nvalue = 66.0"] ;
729 -> 730 ;
731 [label="mse = 0.0\nsamples = 1\nvalue = 50.0"] ;
729 -> 731 ;
732 [label="id <= 26501442.0\nmse = 16.8\nsamples = 7\nvalue = 73.5"] ;
728 -> 732 ;
733 [label="id <= 24589076.0\nmse = 0.2\nsamples = 4\nvalue = 75.3"] ;
732 -> 733 ;
734 [label="mse = 0.0\nsamples = 3\nvalue = 75.0"] ;
733 -> 734 ;
735 [label="mse = 0.0\nsamples = 1\nvalue = 76.0"] ;
733 -> 735 ;
736 [label="number_of_reviews_ltm <= 3.5\nmse = 29.8\nsamples = 3\nvalue = 70.2"] ;
732 -> 736 ;
737 [label="mse = 0.0\nsamples = 1\nvalue = 60.0"] ;
736 -> 737 ;
738 [label="property_type_Apartment <= 0.5\nmse = 4.7\nsamples = 2\nvalue = 72.8"] ;
736 -> 738 ;
739 [label="mse = 0.0\nsamples = 1\nvalue = 74.0"] ;
738 -> 739 ;
740 [label="mse = 0.0\nsamples = 1\nvalue = 69.0"] ;
738 -> 740 ;
741 [label="property_type_Apartment <= 0.5\nmse = 6.2\nsamples = 2\nvalue = 102.5"] ;
725 -> 741 ;
742 [label="mse = 0.0\nsamples = 1\nvalue = 105.0"] ;
741 -> 742 ;
743 [label="mse = 0.0\nsamples = 1\nvalue = 100.0"] ;
741 -> 743 ;
744 [label="mse = 0.0\nsamples = 1\nvalue = 39.0"] ;
714 -> 744 ;
745 [label="mse = 0.0\nsamples = 1\nvalue = 99.0"] ;
713 -> 745 ;
746 [label="review_scores_rating <= 99.0\nmse = 124.2\nsamples = 3\nvalue = 44.3"] ;
698 -> 746 ;
747 [label="mse = 0.0\nsamples = 1\nvalue = 60.0"] ;
746 -> 747 ;
748 [label="property_type_House <= 0.5\nmse = 2.2\nsamples = 2\nvalue = 36.5"] ;
746 -> 748 ;
749 [label="mse = 0.0\nsamples = 1\nvalue = 35.0"] ;
748 -> 749 ;
750 [label="mse = 0.0\nsamples = 1\nvalue = 38.0"] ;
748 -> 750 ;
751 [label="neighbourhood_group_cleansed_Queens <= 0.5\nmse = 236.5\nsamples = 18\nvalue = 51.8"] ;
691 -> 751 ;
752 [label="number_of_reviews_ltm <= 7.5\nmse = 96.9\nsamples = 11\nvalue = 46.4"] ;
751 -> 752 ;
753 [label="property_type_House <= 0.5\nmse = 34.7\nsamples = 7\nvalue = 40.7"] ;
752 -> 753 ;
754 [label="beds <= 1.5\nmse = 31.6\nsamples = 5\nvalue = 44.5"] ;
753 -> 754 ;
755 [label="property_type_Apartment <= 0.5\nmse = 20.6\nsamples = 4\nvalue = 42.8"] ;
754 -> 755 ;
756 [label="mse = 0.0\nsamples = 1\nvalue = 50.0"] ;
755 -> 756 ;
757 [label="maximum_nights <= 45.5\nmse = 9.5\nsamples = 3\nvalue = 41.0"] ;
755 -> 757 ;
758 [label="host_listings_count <= 1.5\nmse = 1.0\nsamples = 2\nvalue = 38.0"] ;
757 -> 758 ;
759 [label="mse = 0.0\nsamples = 1\nvalue = 39.0"] ;
758 -> 759 ;
760 [label="mse = 0.0\nsamples = 1\nvalue = 37.0"] ;
758 -> 760 ;
761 [label="mse = 0.0\nsamples = 1\nvalue = 44.0"] ;
757 -> 761 ;
762 [label="mse = 0.0\nsamples = 1\nvalue = 53.0"] ;
754 -> 762 ;
763 [label="id <= 31091468.0\nmse = 1.0\nsamples = 2\nvalue = 36.2"] ;
753 -> 763 ;
764 [label="mse = 0.0\nsamples = 1\nvalue = 37.0"] ;
763 -> 764 ;
765 [label="mse = 0.0\nsamples = 1\nvalue = 35.0"] ;
763 -> 765 ;
766 [label="id <= 37081418.0\nmse = 62.5\nsamples = 4\nvalue = 55.4"] ;
752 -> 766 ;
767 [label="mse = 0.0\nsamples = 2\nvalue = 60.0"] ;
766 -> 767 ;
768 [label="minimum_nights <= 1.5\nmse = 36.0\nsamples = 2\nvalue = 44.0"] ;
766 -> 768 ;
769 [label="mse = 0.0\nsamples = 1\nvalue = 38.0"] ;
768 -> 769 ;
770 [label="mse = 0.0\nsamples = 1\nvalue = 50.0"] ;
768 -> 770 ;
771 [label="bedrooms <= 0.5\nmse = 343.8\nsamples = 7\nvalue = 61.4"] ;
751 -> 771 ;
772 [label="mse = 0.0\nsamples = 1\nvalue = 110.0"] ;
771 -> 772 ;
773 [label="number_of_reviews_ltm <= 7.5\nmse = 90.4\nsamples = 6\nvalue = 56.0"] ;
771 -> 773 ;
774 [label="id <= 31017118.0\nmse = 70.0\nsamples = 3\nvalue = 50.0"] ;
773 -> 774 ;
775 [label="mse = 0.0\nsamples = 1\nvalue = 60.0"] ;
774 -> 775 ;
776 [label="beds <= 0.5\nmse = 5.6\nsamples = 2\nvalue = 43.3"] ;
774 -> 776 ;
777 [label="mse = 0.0\nsamples = 1\nvalue = 45.0"] ;
776 -> 777 ;
778 [label="mse = 0.0\nsamples = 1\nvalue = 40.0"] ;
776 -> 778 ;
779 [label="maximum_minimum_nights <= 1.5\nmse = 14.8\nsamples = 3\nvalue = 63.5"] ;
773 -> 779 ;
780 [label="mse = 0.0\nsamples = 1\nvalue = 70.0"] ;
779 -> 780 ;
781 [label="review_scores_cleanliness <= 9.5\nmse = 0.9\nsamples = 2\nvalue = 61.3"] ;
779 -> 781 ;
782 [label="mse = 0.0\nsamples = 1\nvalue = 62.0"] ;
781 -> 782 ;
783 [label="mse = 0.0\nsamples = 1\nvalue = 60.0"] ;
781 -> 783 ;
784 [label="number_of_reviews_ltm <= 7.5\nmse = 486.0\nsamples = 53\nvalue = 56.4"] ;
662 -> 784 ;
785 [label="review_scores_accuracy <= 8.5\nmse = 209.5\nsamples = 40\nvalue = 53.3"] ;
784 -> 785 ;
786 [label="mse = 0.0\nsamples = 1\nvalue = 99.0"] ;
785 -> 786 ;
787 [label="host_listings_count <= 2.5\nmse = 180.1\nsamples = 39\nvalue = 52.6"] ;
785 -> 787 ;
788 [label="review_scores_rating <= 97.5\nmse = 135.1\nsamples = 34\nvalue = 50.6"] ;
787 -> 788 ;
789 [label="neighbourhood_group_cleansed_Brooklyn <= 0.5\nmse = 25.0\nsamples = 2\nvalue = 35.0"] ;
788 -> 789 ;
790 [label="mse = 0.0\nsamples = 1\nvalue = 30.0"] ;
789 -> 790 ;
791 [label="mse = 0.0\nsamples = 1\nvalue = 40.0"] ;
789 -> 791 ;
792 [label="number_of_reviews <= 1.5\nmse = 123.7\nsamples = 32\nvalue = 51.7"] ;
788 -> 792 ;
793 [label="neighbourhood_group_cleansed_Brooklyn <= 0.5\nmse = 45.7\nsamples = 6\nvalue = 43.9"] ;
792 -> 793 ;
794 [label="review_scores_checkin <= 9.0\nmse = 0.1\nsamples = 3\nvalue = 39.8"] ;
793 -> 794 ;
795 [label="mse = 0.0\nsamples = 1\nvalue = 39.0"] ;
794 -> 795 ;
796 [label="mse = 0.0\nsamples = 2\nvalue = 40.0"] ;
794 -> 796 ;
797 [label="host_listings_count <= 0.5\nmse = 38.0\nsamples = 3\nvalue = 52.0"] ;
793 -> 797 ;
798 [label="mse = 0.0\nsamples = 1\nvalue = 60.0"] ;
797 -> 798 ;
799 [label="bathrooms <= 1.8\nmse = 9.0\nsamples = 2\nvalue = 48.0"] ;
797 -> 799 ;
800 [label="mse = 0.0\nsamples = 1\nvalue = 51.0"] ;
799 -> 800 ;
801 [label="mse = 0.0\nsamples = 1\nvalue = 45.0"] ;
799 -> 801 ;
802 [label="bathrooms <= 1.2\nmse = 124.5\nsamples = 26\nvalue = 53.3"] ;
792 -> 802 ;
803 [label="id <= 13962883.5\nmse = 127.1\nsamples = 21\nvalue = 55.1"] ;
802 -> 803 ;
804 [label="neighbourhood_group_cleansed_Brooklyn <= 0.5\nmse = 4.0\nsamples = 3\nvalue = 44.0"] ;
803 -> 804 ;
805 [label="mse = 0.0\nsamples = 1\nvalue = 40.0"] ;
804 -> 805 ;
806 [label="mse = 0.0\nsamples = 2\nvalue = 45.0"] ;
804 -> 806 ;
807 [label="hos2_is_superhos2 <= 1.5\nmse = 124.1\nsamples = 18\nvalue = 56.8"] ;
803 -> 807 ;
808 [label="number_of_reviews_ltm <= 3.5\nmse = 118.7\nsamples = 14\nvalue = 55.2"] ;
807 -> 808 ;
809 [label="number_of_reviews <= 2.5\nmse = 131.2\nsamples = 9\nvalue = 51.9"] ;
808 -> 809 ;
810 [label="id <= 32845676.0\nmse = 103.0\nsamples = 6\nvalue = 56.9"] ;
809 -> 810 ;
811 [label="mse = 0.0\nsamples = 1\nvalue = 75.0"] ;
810 -> 811 ;
812 [label="review_scores_checkin <= 9.5\nmse = 37.0\nsamples = 5\nvalue = 52.9"] ;
810 -> 812 ;
813 [label="mse = 0.0\nsamples = 1\nvalue = 60.0"] ;
812 -> 813 ;
814 [label="beds <= 0.5\nmse = 17.6\nsamples = 4\nvalue = 49.3"] ;
812 -> 814 ;
815 [label="mse = 0.0\nsamples = 1\nvalue = 55.0"] ;
814 -> 815 ;
816 [label="minimum_nights_avg_ntm <= 1.5\nmse = 2.2\nsamples = 3\nvalue = 46.5"] ;
814 -> 816 ;
817 [label="mse = 0.0\nsamples = 1\nvalue = 48.0"] ;
816 -> 817 ;
818 [label="mse = 0.0\nsamples = 2\nvalue = 45.0"] ;
816 -> 818 ;
819 [label="property_type_House <= 0.5\nmse = 51.6\nsamples = 3\nvalue = 42.7"] ;
809 -> 819 ;
820 [label="minimum_nights <= 2.5\nmse = 12.0\nsamples = 2\nvalue = 38.0"] ;
819 -> 820 ;
821 [label="mse = 0.0\nsamples = 1\nvalue = 40.0"] ;
820 -> 821 ;
822 [label="mse = 0.0\nsamples = 1\nvalue = 32.0"] ;
820 -> 822 ;
823 [label="mse = 0.0\nsamples = 1\nvalue = 52.0"] ;
819 -> 823 ;
824 [label="number_of_reviews <= 6.5\nmse = 47.6\nsamples = 5\nvalue = 60.8"] ;
808 -> 824 ;
825 [label="maximum_minimum_nights <= 1.5\nmse = 0.2\nsamples = 2\nvalue = 69.7"] ;
824 -> 825 ;
826 [label="mse = 0.0\nsamples = 1\nvalue = 69.0"] ;
825 -> 826 ;
827 [label="mse = 0.0\nsamples = 1\nvalue = 70.0"] ;
825 -> 827 ;
828 [label="minimum_nights <= 1.5\nmse = 19.7\nsamples = 3\nvalue = 57.0"] ;
824 -> 828 ;
829 [label="number_of_reviews <= 8.0\nmse = 0.2\nsamples = 2\nvalue = 59.8"] ;
828 -> 829 ;
830 [label="mse = 0.0\nsamples = 1\nvalue = 59.0"] ;
829 -> 830 ;
831 [label="mse = 0.0\nsamples = 1\nvalue = 60.0"] ;
829 -> 831 ;
832 [label="mse = 0.0\nsamples = 1\nvalue = 50.0"] ;
828 -> 832 ;
833 [label="minimum_minimum_nights <= 1.5\nmse = 17.0\nsamples = 4\nvalue = 68.0"] ;
807 -> 833 ;
834 [label="mse = 0.0\nsamples = 1\nvalue = 75.0"] ;
833 -> 834 ;
835 [label="number_of_reviews_ltm <= 5.0\nmse = 0.9\nsamples = 3\nvalue = 65.7"] ;
833 -> 835 ;
836 [label="mse = 0.0\nsamples = 2\nvalue = 65.0"] ;
835 -> 836 ;
837 [label="mse = 0.0\nsamples = 1\nvalue = 67.0"] ;
835 -> 837 ;
838 [label="review_scores_location <= 9.5\nmse = 40.2\nsamples = 5\nvalue = 45.6"] ;
802 -> 838 ;
839 [label="mse = 0.0\nsamples = 1\nvalue = 35.0"] ;
838 -> 839 ;
840 [label="beds <= 0.5\nmse = 3.5\nsamples = 4\nvalue = 49.2"] ;
838 -> 840 ;
841 [label="mse = 0.0\nsamples = 1\nvalue = 45.0"] ;
840 -> 841 ;
842 [label="mse = 0.0\nsamples = 3\nvalue = 50.0"] ;
840 -> 842 ;
843 [label="id <= 34388064.0\nmse = 267.4\nsamples = 5\nvalue = 66.9"] ;
787 -> 843 ;
844 [label="number_of_reviews_ltm <= 1.5\nmse = 20.2\nsamples = 2\nvalue = 43.5"] ;
843 -> 844 ;
845 [label="mse = 0.0\nsamples = 1\nvalue = 39.0"] ;
844 -> 845 ;
846 [label="mse = 0.0\nsamples = 1\nvalue = 48.0"] ;
844 -> 846 ;
847 [label="neighbourhood_group_cleansed_Brooklyn <= 0.5\nmse = 106.9\nsamples = 3\nvalue = 74.7"] ;
843 -> 847 ;
848 [label="mse = 0.0\nsamples = 1\nvalue = 89.0"] ;
847 -> 848 ;
849 [label="number_of_reviews_ltm <= 3.5\nmse = 6.2\nsamples = 2\nvalue = 67.5"] ;
847 -> 849 ;
850 [label="mse = 0.0\nsamples = 1\nvalue = 70.0"] ;
849 -> 850 ;
851 [label="mse = 0.0\nsamples = 1\nvalue = 65.0"] ;
849 -> 851 ;
852 [label="number_of_reviews_ltm <= 8.5\nmse = 1374.1\nsamples = 13\nvalue = 68.5"] ;
784 -> 852 ;
853 [label="mse = 0.0\nsamples = 1\nvalue = 200.0"] ;
852 -> 853 ;
854 [label="review_scores_rating <= 99.5\nmse = 312.2\nsamples = 12\nvalue = 60.3"] ;
852 -> 854 ;
855 [label="host_listings_count <= 2.5\nmse = 70.6\nsamples = 7\nvalue = 50.8"] ;
854 -> 855 ;
856 [label="minimum_minimum_nights <= 2.5\nmse = 53.5\nsamples = 6\nvalue = 49.2"] ;
855 -> 856 ;
857 [label="id <= 21348389.0\nmse = 33.7\nsamples = 5\nvalue = 46.4"] ;
856 -> 857 ;
858 [label="mse = 0.0\nsamples = 2\nvalue = 40.0"] ;
857 -> 858 ;
859 [label="review_scores_rating <= 98.0\nmse = 24.0\nsamples = 3\nvalue = 49.0"] ;
857 -> 859 ;
860 [label="mse = 0.0\nsamples = 2\nvalue = 45.0"] ;
859 -> 860 ;
861 [label="mse = 0.0\nsamples = 1\nvalue = 55.0"] ;
859 -> 861 ;
862 [label="mse = 0.0\nsamples = 1\nvalue = 59.0"] ;
856 -> 862 ;
863 [label="mse = 0.0\nsamples = 1\nvalue = 65.0"] ;
855 -> 863 ;
864 [label="minimum_maximum_nights <= 1124.5\nmse = 312.8\nsamples = 5\nvalue = 76.2"] ;
854 -> 864 ;
865 [label="mse = 0.0\nsamples = 1\nvalue = 100.0"] ;
864 -> 865 ;
866 [label="id <= 24172476.0\nmse = 239.0\nsamples = 4\nvalue = 71.4"] ;
864 -> 866 ;
867 [label="mse = 0.0\nsamples = 1\nvalue = 43.0"] ;
866 -> 867 ;
868 [label="minimum_nights_avg_ntm <= 2.5\nmse = 46.8\nsamples = 3\nvalue = 78.5"] ;
866 -> 868 ;
869 [label="minimum_nights <= 1.5\nmse = 9.0\nsamples = 2\nvalue = 72.0"] ;
868 -> 869 ;
870 [label="mse = 0.0\nsamples = 1\nvalue = 69.0"] ;
869 -> 870 ;
871 [label="mse = 0.0\nsamples = 1\nvalue = 75.0"] ;
869 -> 871 ;
872 [label="mse = 0.0\nsamples = 1\nvalue = 85.0"] ;
868 -> 872 ;
873 [label="host_listings_count <= 0.5\nmse = 287.6\nsamples = 141\nvalue = 53.4"] ;
575 -> 873 ;
874 [label="review_scores_rating <= 94.5\nmse = 284.7\nsamples = 12\nvalue = 65.4"] ;
873 -> 874 ;
875 [label="mse = 0.0\nsamples = 1\nvalue = 120.0"] ;
874 -> 875 ;
876 [label="minimum_nights <= 5.5\nmse = 116.1\nsamples = 11\nvalue = 62.2"] ;
874 -> 876 ;
877 [label="minimum_nights <= 4.0\nmse = 4.7\nsamples = 3\nvalue = 78.8"] ;
876 -> 877 ;
878 [label="mse = 0.0\nsamples = 1\nvalue = 75.0"] ;
877 -> 878 ;
879 [label="mse = 0.0\nsamples = 2\nvalue = 80.0"] ;
877 -> 879 ;
880 [label="number_of_reviews <= 5.5\nmse = 40.6\nsamples = 8\nvalue = 57.2"] ;
876 -> 880 ;
881 [label="id <= 38435376.0\nmse = 17.6\nsamples = 6\nvalue = 61.1"] ;
880 -> 881 ;
882 [label="number_of_reviews <= 3.5\nmse = 4.0\nsamples = 4\nvalue = 64.0"] ;
881 -> 882 ;
883 [label="mse = 0.0\nsamples = 3\nvalue = 65.0"] ;
882 -> 883 ;
884 [label="mse = 0.0\nsamples = 1\nvalue = 60.0"] ;
882 -> 884 ;
885 [label="maximum_nights <= 575.0\nmse = 3.6\nsamples = 2\nvalue = 56.3"] ;
881 -> 885 ;
886 [label="mse = 0.0\nsamples = 1\nvalue = 59.0"] ;
885 -> 886 ;
887 [label="mse = 0.0\nsamples = 1\nvalue = 55.0"] ;
885 -> 887 ;
888 [label="minimum_nights_avg_ntm <= 9.5\nmse = 11.8\nsamples = 2\nvalue = 50.8"] ;
880 -> 888 ;
889 [label="mse = 0.0\nsamples = 1\nvalue = 48.0"] ;
888 -> 889 ;
890 [label="mse = 0.0\nsamples = 1\nvalue = 55.0"] ;
888 -> 890 ;
891 [label="number_of_reviews_ltm <= 1.5\nmse = 274.4\nsamples = 129\nvalue = 52.4"] ;
873 -> 891 ;
892 [label="hos2_is_superhos2 <= 1.5\nmse = 268.6\nsamples = 35\nvalue = 58.3"] ;
891 -> 892 ;
893 [label="maximum_nights <= 12.5\nmse = 176.6\nsamples = 33\nvalue = 55.6"] ;
892 -> 893 ;
894 [label="maximum_minimum_nights <= 4.5\nmse = 98.0\nsamples = 2\nvalue = 36.0"] ;
893 -> 894 ;
895 [label="mse = 0.0\nsamples = 1\nvalue = 50.0"] ;
894 -> 895 ;
896 [label="mse = 0.0\nsamples = 1\nvalue = 29.0"] ;
894 -> 896 ;
897 [label="maximum_nights <= 115.0\nmse = 156.4\nsamples = 31\nvalue = 56.8"] ;
893 -> 897 ;
898 [label="minimum_nights_avg_ntm <= 8.5\nmse = 165.9\nsamples = 11\nvalue = 64.3"] ;
897 -> 898 ;
899 [label="maximum_minimum_nights <= 6.5\nmse = 86.6\nsamples = 5\nvalue = 75.2"] ;
898 -> 899 ;
900 [label="maximum_nights <= 17.5\nmse = 80.2\nsamples = 3\nvalue = 69.8"] ;
899 -> 900 ;
901 [label="mse = 0.0\nsamples = 1\nvalue = 80.0"] ;
900 -> 901 ;
902 [label="maximum_minimum_nights <= 5.0\nmse = 18.0\nsamples = 2\nvalue = 63.0"] ;
900 -> 902 ;
903 [label="mse = 0.0\nsamples = 1\nvalue = 69.0"] ;
902 -> 903 ;
904 [label="mse = 0.0\nsamples = 1\nvalue = 60.0"] ;
902 -> 904 ;
905 [label="id <= 22712999.5\nmse = 12.0\nsamples = 2\nvalue = 82.0"] ;
899 -> 905 ;
906 [label="mse = 0.0\nsamples = 1\nvalue = 80.0"] ;
905 -> 906 ;
907 [label="mse = 0.0\nsamples = 1\nvalue = 88.0"] ;
905 -> 907 ;
908 [label="maximum_nights <= 25.5\nmse = 5.6\nsamples = 6\nvalue = 53.3"] ;
898 -> 908 ;
909 [label="mse = 0.0\nsamples = 2\nvalue = 50.0"] ;
908 -> 909 ;
910 [label="mse = 0.0\nsamples = 4\nvalue = 55.0"] ;
908 -> 910 ;
911 [label="number_of_reviews <= 20.0\nmse = 100.1\nsamples = 20\nvalue = 52.5"] ;
897 -> 911 ;
912 [label="maximum_nights_avg_ntm <= 155.0\nmse = 75.6\nsamples = 18\nvalue = 51.2"] ;
911 -> 912 ;
913 [label="mse = 0.0\nsamples = 1\nvalue = 27.0"] ;
912 -> 913 ;
914 [label="bedrooms <= 0.5\nmse = 56.7\nsamples = 17\nvalue = 52.0"] ;
912 -> 914 ;
915 [label="id <= 36160665.0\nmse = 5.6\nsamples = 2\nvalue = 43.3"] ;
914 -> 915 ;
916 [label="mse = 0.0\nsamples = 1\nvalue = 40.0"] ;
915 -> 916 ;
917 [label="mse = 0.0\nsamples = 1\nvalue = 45.0"] ;
915 -> 917 ;
918 [label="number_of_reviews <= 8.0\nmse = 52.6\nsamples = 15\nvalue = 53.1"] ;
914 -> 918 ;
919 [label="number_of_reviews <= 1.5\nmse = 55.3\nsamples = 11\nvalue = 55.5"] ;
918 -> 919 ;
920 [label="minimum_nights_avg_ntm <= 4.5\nmse = 20.4\nsamples = 5\nvalue = 52.3"] ;
919 -> 920 ;
921 [label="id <= 34955284.0\nmse = 5.6\nsamples = 2\nvalue = 58.3"] ;
920 -> 921 ;
922 [label="mse = 0.0\nsamples = 1\nvalue = 60.0"] ;
921 -> 922 ;
923 [label="mse = 0.0\nsamples = 1\nvalue = 55.0"] ;
921 -> 923 ;
924 [label="id <= 37763680.0\nmse = 0.9\nsamples = 3\nvalue = 49.3"] ;
920 -> 924 ;
925 [label="mse = 0.0\nsamples = 2\nvalue = 50.0"] ;
924 -> 925 ;
926 [label="mse = 0.0\nsamples = 1\nvalue = 48.0"] ;
924 -> 926 ;
927 [label="minimum_nights_avg_ntm <= 9.0\nmse = 70.8\nsamples = 6\nvalue = 60.2"] ;
919 -> 927 ;
928 [label="maximum_minimum_nights <= 6.5\nmse = 49.0\nsamples = 2\nvalue = 52.0"] ;
927 -> 928 ;
929 [label="mse = 0.0\nsamples = 1\nvalue = 59.0"] ;
928 -> 929 ;
930 [label="mse = 0.0\nsamples = 1\nvalue = 45.0"] ;
928 -> 930 ;
931 [label="host_listings_count <= 2.0\nmse = 31.7\nsamples = 4\nvalue = 64.2"] ;
927 -> 931 ;
932 [label="minimum_minimum_nights <= 15.0\nmse = 4.2\nsamples = 3\nvalue = 67.3"] ;
931 -> 932 ;
933 [label="mse = 0.0\nsamples = 1\nvalue = 70.0"] ;
932 -> 933 ;
934 [label="review_scores_rating <= 94.0\nmse = 1.0\nsamples = 2\nvalue = 66.0"] ;
932 -> 934 ;
935 [label="mse = 0.0\nsamples = 1\nvalue = 67.0"] ;
934 -> 935 ;
936 [label="mse = 0.0\nsamples = 1\nvalue = 65.0"] ;
934 -> 936 ;
937 [label="mse = 0.0\nsamples = 1\nvalue = 55.0"] ;
931 -> 937 ;
938 [label="review_scores_rating <= 99.0\nmse = 27.2\nsamples = 4\nvalue = 49.5"] ;
918 -> 938 ;
939 [label="minimum_nights_avg_ntm <= 5.0\nmse = 5.9\nsamples = 3\nvalue = 51.9"] ;
938 -> 939 ;
940 [label="mse = 0.0\nsamples = 1\nvalue = 55.0"] ;
939 -> 940 ;
941 [label="mse = 0.0\nsamples = 2\nvalue = 50.0"] ;
939 -> 941 ;
942 [label="mse = 0.0\nsamples = 1\nvalue = 40.0"] ;
938 -> 942 ;
943 [label="review_scores_cleanliness <= 9.5\nmse = 49.0\nsamples = 2\nvalue = 72.0"] ;
911 -> 943 ;
944 [label="mse = 0.0\nsamples = 1\nvalue = 65.0"] ;
943 -> 944 ;
945 [label="mse = 0.0\nsamples = 1\nvalue = 79.0"] ;
943 -> 945 ;
946 [label="maximum_maximum_nights <= 577.5\nmse = 384.0\nsamples = 2\nvalue = 86.0"] ;
892 -> 946 ;
947 [label="mse = 0.0\nsamples = 1\nvalue = 70.0"] ;
946 -> 947 ;
948 [label="mse = 0.0\nsamples = 1\nvalue = 110.0"] ;
946 -> 948 ;
949 [label="id <= 22064976.0\nmse = 258.8\nsamples = 94\nvalue = 50.2"] ;
891 -> 949 ;
950 [label="review_scores_cleanliness <= 9.5\nmse = 277.1\nsamples = 56\nvalue = 54.2"] ;
949 -> 950 ;
951 [label="minimum_minimum_nights <= 8.5\nmse = 112.8\nsamples = 25\nvalue = 47.4"] ;
950 -> 951 ;
952 [label="review_scores_rating <= 95.5\nmse = 89.2\nsamples = 19\nvalue = 50.5"] ;
951 -> 952 ;
953 [label="number_of_reviews <= 2.5\nmse = 60.6\nsamples = 11\nvalue = 46.0"] ;
952 -> 953 ;
954 [label="mse = 0.0\nsamples = 1\nvalue = 60.0"] ;
953 -> 954 ;
955 [label="id <= 17070433.0\nmse = 30.9\nsamples = 10\nvalue = 43.6"] ;
953 -> 955 ;
956 [label="number_of_reviews <= 34.5\nmse = 23.9\nsamples = 7\nvalue = 41.6"] ;
955 -> 956 ;
957 [label="review_scores_cleanliness <= 8.5\nmse = 9.8\nsamples = 6\nvalue = 40.5"] ;
956 -> 957 ;
958 [label="mse = 0.0\nsamples = 1\nvalue = 45.0"] ;
957 -> 958 ;
959 [label="property_type_Apartment <= 0.5\nmse = 4.0\nsamples = 5\nvalue = 39.0"] ;
957 -> 959 ;
960 [label="property_type_Loft <= 0.5\nmse = 0.2\nsamples = 2\nvalue = 40.4"] ;
959 -> 960 ;
961 [label="mse = 0.0\nsamples = 1\nvalue = 41.0"] ;
960 -> 961 ;
962 [label="mse = 0.0\nsamples = 1\nvalue = 40.0"] ;
960 -> 962 ;
963 [label="id <= 8006115.0\nmse = 3.2\nsamples = 3\nvalue = 37.2"] ;
959 -> 963 ;
964 [label="mse = 0.0\nsamples = 1\nvalue = 40.0"] ;
963 -> 964 ;
965 [label="maximum_minimum_nights <= 5.5\nmse = 0.9\nsamples = 2\nvalue = 36.3"] ;
963 -> 965 ;
966 [label="mse = 0.0\nsamples = 1\nvalue = 37.0"] ;
965 -> 966 ;
967 [label="mse = 0.0\nsamples = 1\nvalue = 35.0"] ;
965 -> 967 ;
968 [label="mse = 0.0\nsamples = 1\nvalue = 55.0"] ;
956 -> 968 ;
969 [label="mse = 0.0\nsamples = 3\nvalue = 50.0"] ;
955 -> 969 ;
970 [label="number_of_reviews_ltm <= 8.0\nmse = 55.2\nsamples = 8\nvalue = 57.4"] ;
952 -> 970 ;
971 [label="host_listings_count <= 1.5\nmse = 37.4\nsamples = 6\nvalue = 60.2"] ;
970 -> 971 ;
972 [label="review_scores_location <= 9.5\nmse = 28.8\nsamples = 4\nvalue = 57.6"] ;
971 -> 972 ;
973 [label="minimum_minimum_nights <= 4.5\nmse = 22.7\nsamples = 2\nvalue = 60.8"] ;
972 -> 973 ;
974 [label="mse = 0.0\nsamples = 1\nvalue = 58.0"] ;
973 -> 974 ;
975 [label="mse = 0.0\nsamples = 1\nvalue = 69.0"] ;
973 -> 975 ;
976 [label="hos2_is_superhos2 <= 1.5\nmse = 5.6\nsamples = 2\nvalue = 53.3"] ;
972 -> 976 ;
977 [label="mse = 0.0\nsamples = 1\nvalue = 55.0"] ;
976 -> 977 ;
978 [label="mse = 0.0\nsamples = 1\nvalue = 50.0"] ;
976 -> 978 ;
979 [label="hos2_is_superhos2 <= 1.5\nmse = 3.6\nsamples = 2\nvalue = 66.3"] ;
971 -> 979 ;
980 [label="mse = 0.0\nsamples = 1\nvalue = 65.0"] ;
979 -> 980 ;
981 [label="mse = 0.0\nsamples = 1\nvalue = 69.0"] ;
979 -> 981 ;
982 [label="mse = 0.0\nsamples = 2\nvalue = 48.0"] ;
970 -> 982 ;
983 [label="minimum_nights_avg_ntm <= 18.0\nmse = 56.8\nsamples = 6\nvalue = 37.3"] ;
951 -> 983 ;
984 [label="minimum_maximum_nights <= 592.5\nmse = 1.8\nsamples = 3\nvalue = 30.4"] ;
983 -> 984 ;
985 [label="maximum_maximum_nights <= 47.5\nmse = 0.2\nsamples = 2\nvalue = 29.8"] ;
984 -> 985 ;
986 [label="mse = 0.0\nsamples = 1\nvalue = 30.0"] ;
985 -> 986 ;
987 [label="mse = 0.0\nsamples = 1\nvalue = 29.0"] ;
985 -> 987 ;
988 [label="mse = 0.0\nsamples = 1\nvalue = 33.0"] ;
984 -> 988 ;
989 [label="review_scores_rating <= 99.0\nmse = 16.6\nsamples = 3\nvalue = 44.2"] ;
983 -> 989 ;
990 [label="neighbourhood_group_cleansed_Brooklyn <= 0.5\nmse = 1.7\nsamples = 2\nvalue = 42.2"] ;
989 -> 990 ;
991 [label="mse = 0.0\nsamples = 1\nvalue = 40.0"] ;
990 -> 991 ;
992 [label="mse = 0.0\nsamples = 1\nvalue = 43.0"] ;
990 -> 992 ;
993 [label="mse = 0.0\nsamples = 1\nvalue = 52.0"] ;
989 -> 993 ;
994 [label="review_scores_location <= 9.5\nmse = 347.1\nsamples = 31\nvalue = 60.0"] ;
950 -> 994 ;
995 [label="neighbourhood_group_cleansed_Bronx <= 0.5\nmse = 87.1\nsamples = 7\nvalue = 45.9"] ;
994 -> 995 ;
996 [label="neighbourhood_group_cleansed_Brooklyn <= 0.5\nmse = 24.8\nsamples = 6\nvalue = 42.5"] ;
995 -> 996 ;
997 [label="maximum_maximum_nights <= 592.5\nmse = 0.7\nsamples = 3\nvalue = 38.9"] ;
996 -> 997 ;
998 [label="review_scores_rating <= 94.0\nmse = 0.1\nsamples = 2\nvalue = 39.2"] ;
997 -> 998 ;
999 [label="mse = 0.0\nsamples = 1\nvalue = 39.0"] ;
998 -> 999 ;
1000 [label="mse = 0.0\nsamples = 1\nvalue = 40.0"] ;
998 -> 1000 ;
1001 [label="mse = 0.0\nsamples = 1\nvalue = 37.0"] ;
997 -> 1001 ;
1002 [label="property_type_Townhouse <= 0.5\nmse = 4.7\nsamples = 3\nvalue = 48.8"] ;
996 -> 1002 ;
1003 [label="mse = 0.0\nsamples = 2\nvalue = 50.0"] ;
1002 -> 1003 ;
1004 [label="mse = 0.0\nsamples = 1\nvalue = 45.0"] ;
1002 -> 1004 ;
1005 [label="mse = 0.0\nsamples = 1\nvalue = 65.0"] ;
995 -> 1005 ;
1006 [label="minimum_nights <= 6.5\nmse = 343.0\nsamples = 24\nvalue = 65.1"] ;
994 -> 1006 ;
1007 [label="number_of_reviews <= 15.5\nmse = 305.8\nsamples = 10\nvalue = 74.7"] ;
1006 -> 1007 ;
1008 [label="number_of_reviews <= 10.5\nmse = 58.0\nsamples = 8\nvalue = 68.0"] ;
1007 -> 1008 ;
1009 [label="maximum_nights <= 75.0\nmse = 25.2\nsamples = 6\nvalue = 71.8"] ;
1008 -> 1009 ;
1010 [label="number_of_reviews <= 7.0\nmse = 6.2\nsamples = 5\nvalue = 73.4"] ;
1009 -> 1010 ;
1011 [label="mse = 0.0\nsamples = 3\nvalue = 75.0"] ;
1010 -> 1011 ;
1012 [label="maximum_nights <= 30.5\nmse = 0.2\nsamples = 2\nvalue = 69.5"] ;
1010 -> 1012 ;
1013 [label="mse = 0.0\nsamples = 1\nvalue = 69.0"] ;
1012 -> 1013 ;
1014 [label="mse = 0.0\nsamples = 1\nvalue = 70.0"] ;
1012 -> 1014 ;
1015 [label="mse = 0.0\nsamples = 1\nvalue = 60.0"] ;
1009 -> 1015 ;
1016 [label="number_of_reviews <= 12.5\nmse = 8.0\nsamples = 2\nvalue = 58.0"] ;
1008 -> 1016 ;
1017 [label="mse = 0.0\nsamples = 1\nvalue = 54.0"] ;
1016 -> 1017 ;
1018 [label="mse = 0.0\nsamples = 1\nvalue = 60.0"] ;
1016 -> 1018 ;
1019 [label="minimum_minimum_nights <= 5.5\nmse = 529.0\nsamples = 2\nvalue = 93.0"] ;
1007 -> 1019 ;
1020 [label="mse = 0.0\nsamples = 1\nvalue = 116.0"] ;
1019 -> 1020 ;
1021 [label="mse = 0.0\nsamples = 1\nvalue = 70.0"] ;
1019 -> 1021 ;
1022 [label="minimum_minimum_nights <= 11.5\nmse = 258.4\nsamples = 14\nvalue = 58.3"] ;
1006 -> 1022 ;
1023 [label="maximum_minimum_nights <= 8.5\nmse = 143.6\nsamples = 6\nvalue = 48.0"] ;
1022 -> 1023 ;
1024 [label="number_of_reviews <= 16.0\nmse = 50.0\nsamples = 2\nvalue = 65.0"] ;
1023 -> 1024 ;
1025 [label="mse = 0.0\nsamples = 1\nvalue = 55.0"] ;
1024 -> 1025 ;
1026 [label="mse = 0.0\nsamples = 1\nvalue = 70.0"] ;
1024 -> 1026 ;
1027 [label="number_of_reviews_ltm <= 6.5\nmse = 6.8\nsamples = 4\nvalue = 40.7"] ;
1023 -> 1027 ;
1028 [label="host_listings_count <= 2.0\nmse = 0.2\nsamples = 3\nvalue = 39.7"] ;
1027 -> 1028 ;
1029 [label="mse = 0.0\nsamples = 1\nvalue = 39.0"] ;
1028 -> 1029 ;
1030 [label="mse = 0.0\nsamples = 2\nvalue = 40.0"] ;
1028 -> 1030 ;
1031 [label="mse = 0.0\nsamples = 1\nvalue = 47.0"] ;
1027 -> 1031 ;
1032 [label="review_scores_rating <= 98.5\nmse = 177.5\nsamples = 8\nvalue = 67.7"] ;
1022 -> 1032 ;
1033 [label="minimum_nights_avg_ntm <= 16.5\nmse = 96.4\nsamples = 5\nvalue = 73.8"] ;
1032 -> 1033 ;
1034 [label="mse = 0.0\nsamples = 1\nvalue = 98.0"] ;
1033 -> 1034 ;
1035 [label="id <= 11873484.0\nmse = 14.2\nsamples = 4\nvalue = 70.3"] ;
1033 -> 1035 ;
1036 [label="hos2_is_superhos2 <= 1.5\nmse = 7.4\nsamples = 3\nvalue = 68.4"] ;
1035 -> 1036 ;
1037 [label="property_type_Apartment <= 0.5\nmse = 0.2\nsamples = 2\nvalue = 69.8"] ;
1036 -> 1037 ;
1038 [label="mse = 0.0\nsamples = 1\nvalue = 69.0"] ;
1037 -> 1038 ;
1039 [label="mse = 0.0\nsamples = 1\nvalue = 70.0"] ;
1037 -> 1039 ;
1040 [label="mse = 0.0\nsamples = 1\nvalue = 63.0"] ;
1036 -> 1040 ;
1041 [label="mse = 0.0\nsamples = 1\nvalue = 75.0"] ;
1035 -> 1041 ;
1042 [label="property_type_Apartment <= 0.5\nmse = 38.9\nsamples = 3\nvalue = 51.7"] ;
1032 -> 1042 ;
1043 [label="mse = 0.0\nsamples = 1\nvalue = 60.0"] ;
1042 -> 1043 ;
1044 [label="neighbourhood_group_cleansed_Staten Island <= 0.5\nmse = 6.2\nsamples = 2\nvalue = 47.5"] ;
1042 -> 1044 ;
1045 [label="mse = 0.0\nsamples = 1\nvalue = 45.0"] ;
1044 -> 1045 ;
1046 [label="mse = 0.0\nsamples = 1\nvalue = 50.0"] ;
1044 -> 1046 ;
1047 [label="minimum_nights <= 12.0\nmse = 172.7\nsamples = 38\nvalue = 44.3"] ;
949 -> 1047 ;
1048 [label="number_of_reviews_ltm <= 15.5\nmse = 116.8\nsamples = 27\nvalue = 41.4"] ;
1047 -> 1048 ;
1049 [label="hos2_is_superhos2 <= 1.5\nmse = 92.8\nsamples = 25\nvalue = 40.2"] ;
1048 -> 1049 ;
1050 [label="host_listings_count <= 2.5\nmse = 43.9\nsamples = 20\nvalue = 37.2"] ;
1049 -> 1050 ;
1051 [label="review_scores_location <= 9.5\nmse = 32.4\nsamples = 16\nvalue = 35.5"] ;
1050 -> 1051 ;
1052 [label="mse = 0.0\nsamples = 1\nvalue = 50.0"] ;
1051 -> 1052 ;
1053 [label="number_of_reviews <= 2.5\nmse = 25.0\nsamples = 15\nvalue = 35.0"] ;
1051 -> 1053 ;
1054 [label="neighbourhood_group_cleansed_Brooklyn <= 0.5\nmse = 5.6\nsamples = 2\nvalue = 28.3"] ;
1053 -> 1054 ;
1055 [label="mse = 0.0\nsamples = 1\nvalue = 25.0"] ;
1054 -> 1055 ;
1056 [label="mse = 0.0\nsamples = 1\nvalue = 30.0"] ;
1054 -> 1056 ;
1057 [label="number_of_reviews_ltm <= 2.5\nmse = 20.8\nsamples = 13\nvalue = 35.9"] ;
1053 -> 1057 ;
1058 [label="maximum_minimum_nights <= 6.0\nmse = 38.9\nsamples = 3\nvalue = 41.7"] ;
1057 -> 1058 ;
1059 [label="maximum_nights <= 569.5\nmse = 6.2\nsamples = 2\nvalue = 37.5"] ;
1058 -> 1059 ;
1060 [label="mse = 0.0\nsamples = 1\nvalue = 40.0"] ;
1059 -> 1060 ;
1061 [label="mse = 0.0\nsamples = 1\nvalue = 35.0"] ;
1059 -> 1061 ;
1062 [label="mse = 0.0\nsamples = 1\nvalue = 50.0"] ;
1058 -> 1062 ;
1063 [label="review_scores_rating <= 99.5\nmse = 11.8\nsamples = 10\nvalue = 34.9"] ;
1057 -> 1063 ;
1064 [label="minimum_nights <= 4.5\nmse = 9.3\nsamples = 4\nvalue = 38.1"] ;
1063 -> 1064 ;
1065 [label="mse = 0.0\nsamples = 1\nvalue = 31.0"] ;
1064 -> 1065 ;
1066 [label="review_scores_rating <= 91.0\nmse = 0.9\nsamples = 3\nvalue = 39.3"] ;
1064 -> 1066 ;
1067 [label="mse = 0.0\nsamples = 1\nvalue = 38.0"] ;
1066 -> 1067 ;
1068 [label="mse = 0.0\nsamples = 2\nvalue = 40.0"] ;
1066 -> 1068 ;
1069 [label="minimum_minimum_nights <= 8.5\nmse = 3.9\nsamples = 6\nvalue = 33.1"] ;
1063 -> 1069 ;
1070 [label="maximum_nights <= 19.0\nmse = 2.4\nsamples = 5\nvalue = 33.7"] ;
1069 -> 1070 ;
1071 [label="maximum_minimum_nights <= 4.5\nmse = 1.4\nsamples = 2\nvalue = 32.4"] ;
1070 -> 1071 ;
1072 [label="mse = 0.0\nsamples = 1\nvalue = 33.0"] ;
1071 -> 1072 ;
1073 [label="mse = 0.0\nsamples = 1\nvalue = 30.0"] ;
1071 -> 1073 ;
1074 [label="mse = 0.0\nsamples = 3\nvalue = 35.0"] ;
1070 -> 1074 ;
1075 [label="mse = 0.0\nsamples = 1\nvalue = 30.0"] ;
1069 -> 1075 ;
1076 [label="maximum_nights <= 38.0\nmse = 30.9\nsamples = 4\nvalue = 44.3"] ;
1050 -> 1076 ;
1077 [label="mse = 0.0\nsamples = 1\nvalue = 52.0"] ;
1076 -> 1077 ;
1078 [label="neighbourhood_group_cleansed_Queens <= 0.5\nmse = 2.2\nsamples = 3\nvalue = 40.5"] ;
1076 -> 1078 ;
1079 [label="mse = 0.0\nsamples = 1\nvalue = 38.0"] ;
1078 -> 1079 ;
1080 [label="id <= 28738742.0\nmse = 0.2\nsamples = 2\nvalue = 41.3"] ;
1078 -> 1080 ;
1081 [label="mse = 0.0\nsamples = 1\nvalue = 41.0"] ;
1080 -> 1081 ;
1082 [label="mse = 0.0\nsamples = 1\nvalue = 42.0"] ;
1080 -> 1082 ;
1083 [label="neighbourhood_group_cleansed_Bronx <= 0.5\nmse = 115.4\nsamples = 5\nvalue = 51.1"] ;
1049 -> 1083 ;
1084 [label="minimum_nights <= 6.0\nmse = 53.1\nsamples = 4\nvalue = 55.7"] ;
1083 -> 1084 ;
1085 [label="maximum_nights_avg_ntm <= 577.5\nmse = 22.2\nsamples = 2\nvalue = 63.3"] ;
1084 -> 1085 ;
1086 [label="mse = 0.0\nsamples = 1\nvalue = 70.0"] ;
1085 -> 1086 ;
1087 [label="mse = 0.0\nsamples = 1\nvalue = 60.0"] ;
1085 -> 1087 ;
1088 [label="mse = 0.0\nsamples = 2\nvalue = 50.0"] ;
1084 -> 1088 ;
1089 [label="mse = 0.0\nsamples = 1\nvalue = 35.0"] ;
1083 -> 1089 ;
1090 [label="number_of_reviews <= 17.0\nmse = 25.0\nsamples = 2\nvalue = 65.0"] ;
1048 -> 1090 ;
1091 [label="mse = 0.0\nsamples = 1\nvalue = 60.0"] ;
1090 -> 1091 ;
1092 [label="mse = 0.0\nsamples = 1\nvalue = 70.0"] ;
1090 -> 1092 ;
1093 [label="hos2_is_superhos2 <= 1.5\nmse = 238.8\nsamples = 11\nvalue = 51.2"] ;
1047 -> 1093 ;
1094 [label="bathrooms <= 1.8\nmse = 318.2\nsamples = 6\nvalue = 61.8"] ;
1093 -> 1094 ;
1095 [label="minimum_nights <= 17.5\nmse = 209.3\nsamples = 5\nvalue = 66.1"] ;
1094 -> 1095 ;
1096 [label="mse = 0.0\nsamples = 1\nvalue = 100.0"] ;
1095 -> 1096 ;
1097 [label="maximum_nights <= 541.5\nmse = 21.2\nsamples = 4\nvalue = 60.5"] ;
1095 -> 1097 ;
1098 [label="maximum_maximum_nights <= 52.5\nmse = 2.2\nsamples = 2\nvalue = 56.5"] ;
1097 -> 1098 ;
1099 [label="mse = 0.0\nsamples = 1\nvalue = 58.0"] ;
1098 -> 1099 ;
1100 [label="mse = 0.0\nsamples = 1\nvalue = 55.0"] ;
1098 -> 1100 ;
1101 [label="review_scores_cleanliness <= 9.5\nmse = 18.8\nsamples = 2\nvalue = 62.5"] ;
1097 -> 1101 ;
1102 [label="mse = 0.0\nsamples = 1\nvalue = 60.0"] ;
1101 -> 1102 ;
1103 [label="mse = 0.0\nsamples = 1\nvalue = 70.0"] ;
1101 -> 1103 ;
1104 [label="mse = 0.0\nsamples = 1\nvalue = 31.0"] ;
1094 -> 1104 ;
1105 [label="review_scores_accuracy <= 9.5\nmse = 14.0\nsamples = 5\nvalue = 42.7"] ;
1093 -> 1105 ;
1106 [label="mse = 0.0\nsamples = 1\nvalue = 37.0"] ;
1105 -> 1106 ;
1107 [label="number_of_reviews_ltm <= 3.0\nmse = 0.1\nsamples = 4\nvalue = 45.1"] ;
1105 -> 1107 ;
1108 [label="mse = 0.0\nsamples = 1\nvalue = 46.0"] ;
1107 -> 1108 ;
1109 [label="mse = 0.0\nsamples = 3\nvalue = 45.0"] ;
1107 -> 1109 ;
1110 [label="review_scores_location <= 9.5\nmse = 189.3\nsamples = 90\nvalue = 50.6"] ;
184 -> 1110 ;
1111 [label="host_listings_count <= 1.5\nmse = 64.6\nsamples = 24\nvalue = 40.0"] ;
1110 -> 1111 ;
1112 [label="maximum_nights_avg_ntm <= 6.0\nmse = 22.2\nsamples = 4\nvalue = 29.4"] ;
1111 -> 1112 ;
1113 [label="maximum_nights <= 3.0\nmse = 6.2\nsamples = 2\nvalue = 36.5"] ;
1112 -> 1113 ;
1114 [label="mse = 0.0\nsamples = 1\nvalue = 39.0"] ;
1113 -> 1114 ;
1115 [label="mse = 0.0\nsamples = 1\nvalue = 34.0"] ;
1113 -> 1115 ;
1116 [label="review_scores_rating <= 93.0\nmse = 0.6\nsamples = 2\nvalue = 26.6"] ;
1112 -> 1116 ;
1117 [label="mse = 0.0\nsamples = 1\nvalue = 27.0"] ;
1116 -> 1117 ;
1118 [label="mse = 0.0\nsamples = 1\nvalue = 25.0"] ;
1116 -> 1118 ;
1119 [label="id <= 32685119.0\nmse = 43.2\nsamples = 20\nvalue = 42.4"] ;
1111 -> 1119 ;
1120 [label="maximum_nights_avg_ntm <= 16.5\nmse = 36.3\nsamples = 17\nvalue = 43.6"] ;
1119 -> 1120 ;
1121 [label="mse = 0.0\nsamples = 1\nvalue = 33.0"] ;
1120 -> 1121 ;
1122 [label="number_of_reviews_ltm <= 63.0\nmse = 29.5\nsamples = 16\nvalue = 44.4"] ;
1120 -> 1122 ;
1123 [label="minimum_minimum_nights <= 5.0\nmse = 21.3\nsamples = 14\nvalue = 43.6"] ;
1122 -> 1123 ;
1124 [label="review_scores_rating <= 94.5\nmse = 15.6\nsamples = 12\nvalue = 44.4"] ;
1123 -> 1124 ;
1125 [label="id <= 10184333.0\nmse = 11.0\nsamples = 8\nvalue = 42.9"] ;
1124 -> 1125 ;
1126 [label="maximum_nights <= 577.0\nmse = 4.0\nsamples = 3\nvalue = 47.0"] ;
1125 -> 1126 ;
1127 [label="mse = 0.0\nsamples = 2\nvalue = 49.0"] ;
1126 -> 1127 ;
1128 [label="mse = 0.0\nsamples = 1\nvalue = 45.0"] ;
1126 -> 1128 ;
1129 [label="minimum_maximum_nights <= 26.5\nmse = 5.1\nsamples = 5\nvalue = 41.4"] ;
1125 -> 1129 ;
1130 [label="mse = 0.0\nsamples = 1\nvalue = 35.0"] ;
1129 -> 1130 ;
1131 [label="review_scores_checkin <= 9.5\nmse = 1.2\nsamples = 4\nvalue = 42.0"] ;
1129 -> 1131 ;
1132 [label="mse = 0.0\nsamples = 1\nvalue = 40.0"] ;
1131 -> 1132 ;
1133 [label="review_scores_cleanliness <= 9.5\nmse = 0.2\nsamples = 3\nvalue = 42.5"] ;
1131 -> 1133 ;
1134 [label="mse = 0.0\nsamples = 2\nvalue = 43.0"] ;
1133 -> 1134 ;
1135 [label="mse = 0.0\nsamples = 1\nvalue = 42.0"] ;
1133 -> 1135 ;
1136 [label="number_of_reviews_ltm <= 30.0\nmse = 5.6\nsamples = 4\nvalue = 48.3"] ;
1124 -> 1136 ;
1137 [label="mse = 0.0\nsamples = 1\nvalue = 45.0"] ;
1136 -> 1137 ;
1138 [label="mse = 0.0\nsamples = 3\nvalue = 50.0"] ;
1136 -> 1138 ;
1139 [label="mse = 0.0\nsamples = 2\nvalue = 35.0"] ;
1123 -> 1139 ;
1140 [label="number_of_reviews_ltm <= 69.0\nmse = 25.0\nsamples = 2\nvalue = 54.0"] ;
1122 -> 1140 ;
1141 [label="mse = 0.0\nsamples = 1\nvalue = 59.0"] ;
1140 -> 1141 ;
1142 [label="mse = 0.0\nsamples = 1\nvalue = 49.0"] ;
1140 -> 1142 ;
1143 [label="property_type_House <= 0.5\nmse = 13.7\nsamples = 3\nvalue = 34.2"] ;
1119 -> 1143 ;
1144 [label="mse = 0.0\nsamples = 1\nvalue = 40.0"] ;
1143 -> 1144 ;
1145 [label="minimum_minimum_nights <= 1.5\nmse = 3.6\nsamples = 2\nvalue = 32.3"] ;
1143 -> 1145 ;
1146 [label="mse = 0.0\nsamples = 1\nvalue = 35.0"] ;
1145 -> 1146 ;
1147 [label="mse = 0.0\nsamples = 1\nvalue = 31.0"] ;
1145 -> 1147 ;
1148 [label="host_listings_count <= 0.5\nmse = 182.1\nsamples = 66\nvalue = 53.9"] ;
1110 -> 1148 ;
1149 [label="maximum_minimum_nights <= 1.5\nmse = 332.2\nsamples = 3\nvalue = 74.2"] ;
1148 -> 1149 ;
1150 [label="minimum_maximum_nights <= 566.0\nmse = 9.0\nsamples = 2\nvalue = 52.0"] ;
1149 -> 1150 ;
1151 [label="mse = 0.0\nsamples = 1\nvalue = 55.0"] ;
1150 -> 1151 ;
1152 [label="mse = 0.0\nsamples = 1\nvalue = 49.0"] ;
1150 -> 1152 ;
1153 [label="mse = 0.0\nsamples = 1\nvalue = 89.0"] ;
1149 -> 1153 ;
1154 [label="minimum_maximum_nights <= 4.0\nmse = 156.5\nsamples = 63\nvalue = 53.1"] ;
1148 -> 1154 ;
1155 [label="mse = 0.0\nsamples = 1\nvalue = 99.0"] ;
1154 -> 1155 ;
1156 [label="id <= 30394899.0\nmse = 138.9\nsamples = 62\nvalue = 52.6"] ;
1154 -> 1156 ;
1157 [label="review_scores_rating <= 98.5\nmse = 123.4\nsamples = 40\nvalue = 56.0"] ;
1156 -> 1157 ;
1158 [label="review_scores_checkin <= 9.5\nmse = 89.5\nsamples = 31\nvalue = 53.6"] ;
1157 -> 1158 ;
1159 [label="minimum_nights <= 16.5\nmse = 16.0\nsamples = 2\nvalue = 31.0"] ;
1158 -> 1159 ;
1160 [label="mse = 0.0\nsamples = 1\nvalue = 27.0"] ;
1159 -> 1160 ;
1161 [label="mse = 0.0\nsamples = 1\nvalue = 35.0"] ;
1159 -> 1161 ;
1162 [label="bathrooms <= 1.2\nmse = 72.9\nsamples = 29\nvalue = 54.5"] ;
1158 -> 1162 ;
1163 [label="id <= 16713975.5\nmse = 67.6\nsamples = 24\nvalue = 56.2"] ;
1162 -> 1163 ;
1164 [label="bed_type_Futon <= 0.5\nmse = 61.6\nsamples = 11\nvalue = 59.2"] ;
1163 -> 1164 ;
1165 [label="review_scores_value <= 9.5\nmse = 41.7\nsamples = 10\nvalue = 61.0"] ;
1164 -> 1165 ;
1166 [label="mse = 0.0\nsamples = 1\nvalue = 75.0"] ;
1165 -> 1166 ;
1167 [label="number_of_reviews_ltm <= 26.0\nmse = 26.7\nsamples = 9\nvalue = 59.7"] ;
1165 -> 1167 ;
1168 [label="mse = 0.0\nsamples = 1\nvalue = 70.0"] ;
1167 -> 1168 ;
1169 [label="maximum_nights_avg_ntm <= 75.0\nmse = 18.3\nsamples = 8\nvalue = 58.8"] ;
1167 -> 1169 ;
1170 [label="maximum_nights <= 50.0\nmse = 13.7\nsamples = 5\nvalue = 56.2"] ;
1169 -> 1170 ;
1171 [label="number_of_reviews <= 74.0\nmse = 7.1\nsamples = 4\nvalue = 57.5"] ;
1170 -> 1171 ;
1172 [label="mse = 0.0\nsamples = 1\nvalue = 50.0"] ;
1171 -> 1172 ;
1173 [label="property_type_Apartment <= 0.5\nmse = 0.9\nsamples = 3\nvalue = 58.3"] ;
1171 -> 1173 ;
1174 [label="mse = 0.0\nsamples = 1\nvalue = 57.0"] ;
1173 -> 1174 ;
1175 [label="mse = 0.0\nsamples = 2\nvalue = 59.0"] ;
1173 -> 1175 ;
1176 [label="mse = 0.0\nsamples = 1\nvalue = 50.0"] ;
1170 -> 1176 ;
1177 [label="minimum_nights_avg_ntm <= 2.5\nmse = 4.8\nsamples = 3\nvalue = 62.1"] ;
1169 -> 1177 ;
1178 [label="hos2_is_superhos2 <= 1.5\nmse = 0.9\nsamples = 2\nvalue = 60.7"] ;
1177 -> 1178 ;
1179 [label="mse = 0.0\nsamples = 1\nvalue = 60.0"] ;
1178 -> 1179 ;
1180 [label="mse = 0.0\nsamples = 1\nvalue = 62.0"] ;
1178 -> 1180 ;
1181 [label="mse = 0.0\nsamples = 1\nvalue = 65.0"] ;
1177 -> 1181 ;
1182 [label="mse = 0.0\nsamples = 1\nvalue = 45.0"] ;
1164 -> 1182 ;
1183 [label="number_of_reviews_ltm <= 29.0\nmse = 32.2\nsamples = 13\nvalue = 50.8"] ;
1163 -> 1183 ;
1184 [label="review_scores_rating <= 96.5\nmse = 22.2\nsamples = 3\nvalue = 58.3"] ;
1183 -> 1184 ;
1185 [label="mse = 0.0\nsamples = 2\nvalue = 55.0"] ;
1184 -> 1185 ;
1186 [label="mse = 0.0\nsamples = 1\nvalue = 65.0"] ;
1184 -> 1186 ;
1187 [label="maximum_nights_avg_ntm <= 9.5\nmse = 18.2\nsamples = 10\nvalue = 49.0"] ;
1183 -> 1187 ;
1188 [label="minimum_nights_avg_ntm <= 1.5\nmse = 0.9\nsamples = 2\nvalue = 53.7"] ;
1187 -> 1188 ;
1189 [label="mse = 0.0\nsamples = 1\nvalue = 53.0"] ;
1188 -> 1189 ;
1190 [label="mse = 0.0\nsamples = 1\nvalue = 55.0"] ;
1188 -> 1190 ;
1191 [label="maximum_nights_avg_ntm <= 576.5\nmse = 14.8\nsamples = 8\nvalue = 47.6"] ;
1187 -> 1191 ;
1192 [label="number_of_reviews <= 78.0\nmse = 13.6\nsamples = 3\nvalue = 44.7"] ;
1191 -> 1192 ;
1193 [label="maximum_nights_avg_ntm <= 19.0\nmse = 4.0\nsamples = 2\nvalue = 47.0"] ;
1192 -> 1193 ;
1194 [label="mse = 0.0\nsamples = 1\nvalue = 49.0"] ;
1193 -> 1194 ;
1195 [label="mse = 0.0\nsamples = 1\nvalue = 45.0"] ;
1193 -> 1195 ;
1196 [label="mse = 0.0\nsamples = 1\nvalue = 40.0"] ;
1192 -> 1196 ;
1197 [label="id <= 28698799.0\nmse = 10.1\nsamples = 5\nvalue = 48.9"] ;
1191 -> 1197 ;
1198 [label="review_scores_rating <= 97.0\nmse = 4.5\nsamples = 4\nvalue = 47.8"] ;
1197 -> 1198 ;
1199 [label="number_of_reviews_ltm <= 68.5\nmse = 0.7\nsamples = 3\nvalue = 49.2"] ;
1198 -> 1199 ;
1200 [label="property_type_Apartment <= 0.5\nmse = 0.2\nsamples = 2\nvalue = 48.5"] ;
1199 -> 1200 ;
1201 [label="mse = 0.0\nsamples = 1\nvalue = 48.0"] ;
1200 -> 1201 ;
1202 [label="mse = 0.0\nsamples = 1\nvalue = 49.0"] ;
1200 -> 1202 ;
1203 [label="mse = 0.0\nsamples = 1\nvalue = 50.0"] ;
1199 -> 1203 ;
1204 [label="mse = 0.0\nsamples = 1\nvalue = 45.0"] ;
1198 -> 1204 ;
1205 [label="mse = 0.0\nsamples = 1\nvalue = 55.0"] ;
1197 -> 1205 ;
1206 [label="number_of_reviews_ltm <= 42.5\nmse = 35.9\nsamples = 5\nvalue = 47.6"] ;
1162 -> 1206 ;
1207 [label="minimum_nights <= 3.5\nmse = 16.8\nsamples = 3\nvalue = 43.2"] ;
1206 -> 1207 ;
1208 [label="mse = 0.0\nsamples = 2\nvalue = 45.0"] ;
1207 -> 1208 ;
1209 [label="mse = 0.0\nsamples = 1\nvalue = 34.0"] ;
1207 -> 1209 ;
1210 [label="bathrooms <= 1.8\nmse = 6.0\nsamples = 2\nvalue = 53.0"] ;
1206 -> 1210 ;
1211 [label="mse = 0.0\nsamples = 1\nvalue = 55.0"] ;
1210 -> 1211 ;
1212 [label="mse = 0.0\nsamples = 1\nvalue = 50.0"] ;
1210 -> 1212 ;
1213 [label="number_of_reviews_ltm <= 35.0\nmse = 152.0\nsamples = 9\nvalue = 64.9"] ;
1157 -> 1213 ;
1214 [label="number_of_reviews <= 26.0\nmse = 127.1\nsamples = 5\nvalue = 54.7"] ;
1213 -> 1214 ;
1215 [label="mse = 0.0\nsamples = 1\nvalue = 70.0"] ;
1214 -> 1215 ;
1216 [label="minimum_minimum_nights <= 4.5\nmse = 47.0\nsamples = 4\nvalue = 48.6"] ;
1214 -> 1216 ;
1217 [label="neighbourhood_group_cleansed_Queens <= 0.5\nmse = 17.6\nsamples = 3\nvalue = 43.7"] ;
1216 -> 1217 ;
1218 [label="review_scores_rating <= 99.5\nmse = 2.2\nsamples = 2\nvalue = 46.5"] ;
1217 -> 1218 ;
1219 [label="mse = 0.0\nsamples = 1\nvalue = 48.0"] ;
1218 -> 1219 ;
1220 [label="mse = 0.0\nsamples = 1\nvalue = 45.0"] ;
1218 -> 1220 ;
1221 [label="mse = 0.0\nsamples = 1\nvalue = 38.0"] ;
1217 -> 1221 ;
1222 [label="mse = 0.0\nsamples = 1\nvalue = 56.0"] ;
1216 -> 1222 ;
1223 [label="maximum_minimum_nights <= 3.5\nmse = 4.7\nsamples = 4\nvalue = 73.8"] ;
1213 -> 1223 ;
1224 [label="mse = 0.0\nsamples = 3\nvalue = 75.0"] ;
1223 -> 1224 ;
1225 [label="mse = 0.0\nsamples = 1\nvalue = 70.0"] ;
1223 -> 1225 ;
1226 [label="review_scores_rating <= 96.5\nmse = 111.1\nsamples = 22\nvalue = 46.6"] ;
1156 -> 1226 ;
1227 [label="review_scores_cleanliness <= 9.5\nmse = 108.1\nsamples = 10\nvalue = 51.4"] ;
1226 -> 1227 ;
1228 [label="maximum_maximum_nights <= 45.0\nmse = 39.1\nsamples = 5\nvalue = 59.2"] ;
1227 -> 1228 ;
1229 [label="neighbourhood_group_cleansed_Brooklyn <= 0.5\nmse = 5.6\nsamples = 2\nvalue = 51.7"] ;
1228 -> 1229 ;
1230 [label="mse = 0.0\nsamples = 1\nvalue = 55.0"] ;
1229 -> 1230 ;
1231 [label="mse = 0.0\nsamples = 1\nvalue = 50.0"] ;
1229 -> 1231 ;
